digraph Tree {
node [shape=box] ;
0 [label="Age <= 42.5\ngini = 0.3248\nsamples = 8000\nvalue = [6368, 1632]"] ;
1 [label="NumOfProducts <= 2.5\ngini = 0.2094\nsamples = 5707\nvalue = [5029, 678]"] ;
0 -> 1 [labeldistance=2.5, labelangle=45, headlabel="True"] ;
2 [label="NumOfProducts <= 1.5\ngini = 0.1876\nsamples = 5583\nvalue = [4998, 585]"] ;
1 -> 2 ;
3 [label="Geography_Germany <= 0.5\ngini = 0.2776\nsamples = 2756\nvalue = [2297, 459]"] ;
2 -> 3 ;
4 [label="Balance <= 75371.2969\ngini = 0.2289\nsamples = 2101\nvalue = [1824, 277]"] ;
3 -> 4 ;
5 [label="Gender_Female <= 0.5\ngini = 0.3483\nsamples = 570\nvalue = [442, 128]"] ;
4 -> 5 ;
6 [label="CreditScore <= 415.0\ngini = 0.2785\nsamples = 323\nvalue = [269, 54]"] ;
5 -> 6 ;
7 [label="gini = 0.0\nsamples = 4\nvalue = [0, 4]"] ;
6 -> 7 ;
8 [label="Age <= 31.5\ngini = 0.2643\nsamples = 319\nvalue = [269, 50]"] ;
6 -> 8 ;
9 [label="EstimatedSalary <= 198322.5469\ngini = 0.1623\nsamples = 101\nvalue = [92, 9]"] ;
8 -> 9 ;
10 [label="CreditScore <= 831.5\ngini = 0.1472\nsamples = 100\nvalue = [92, 8]"] ;
9 -> 10 ;
11 [label="EstimatedSalary <= 50257.2148\ngini = 0.1339\nsamples = 97\nvalue = [90, 7]"] ;
10 -> 11 ;
12 [label="gini = 0.0\nsamples = 27\nvalue = [27, 0]"] ;
11 -> 12 ;
13 [label="EstimatedSalary <= 55345.0859\ngini = 0.18\nsamples = 70\nvalue = [63, 7]"] ;
11 -> 13 ;
14 [label="gini = 0.0\nsamples = 2\nvalue = [0, 2]"] ;
13 -> 14 ;
15 [label="Age <= 30.5\ngini = 0.1362\nsamples = 68\nvalue = [63, 5]"] ;
13 -> 15 ;
16 [label="Age <= 27.5\ngini = 0.0997\nsamples = 57\nvalue = [54, 3]"] ;
15 -> 16 ;
17 [label="EstimatedSalary <= 144102.5\ngini = 0.2041\nsamples = 26\nvalue = [23, 3]"] ;
16 -> 17 ;
18 [label="EstimatedSalary <= 137830.0312\ngini = 0.3047\nsamples = 16\nvalue = [13, 3]"] ;
17 -> 18 ;
19 [label="Balance <= 68882.3047\ngini = 0.2311\nsamples = 15\nvalue = [13, 2]"] ;
18 -> 19 ;
20 [label="EstimatedSalary <= 84082.1562\ngini = 0.142\nsamples = 13\nvalue = [12, 1]"] ;
19 -> 20 ;
21 [label="EstimatedSalary <= 67130.8516\ngini = 0.5\nsamples = 2\nvalue = [1, 1]"] ;
20 -> 21 ;
22 [label="gini = 0.0\nsamples = 1\nvalue = [1, 0]"] ;
21 -> 22 ;
23 [label="gini = 0.0\nsamples = 1\nvalue = [0, 1]"] ;
21 -> 23 ;
24 [label="gini = 0.0\nsamples = 11\nvalue = [11, 0]"] ;
20 -> 24 ;
25 [label="Balance <= 72197.125\ngini = 0.5\nsamples = 2\nvalue = [1, 1]"] ;
19 -> 25 ;
26 [label="gini = 0.0\nsamples = 1\nvalue = [0, 1]"] ;
25 -> 26 ;
27 [label="gini = 0.0\nsamples = 1\nvalue = [1, 0]"] ;
25 -> 27 ;
28 [label="gini = 0.0\nsamples = 1\nvalue = [0, 1]"] ;
18 -> 28 ;
29 [label="gini = 0.0\nsamples = 10\nvalue = [10, 0]"] ;
17 -> 29 ;
30 [label="gini = 0.0\nsamples = 31\nvalue = [31, 0]"] ;
16 -> 30 ;
31 [label="Tenure <= 3.0\ngini = 0.2975\nsamples = 11\nvalue = [9, 2]"] ;
15 -> 31 ;
32 [label="gini = 0.0\nsamples = 1\nvalue = [0, 1]"] ;
31 -> 32 ;
33 [label="CreditScore <= 719.5\ngini = 0.18\nsamples = 10\nvalue = [9, 1]"] ;
31 -> 33 ;
34 [label="gini = 0.0\nsamples = 8\nvalue = [8, 0]"] ;
33 -> 34 ;
35 [label="CreditScore <= 776.0\ngini = 0.5\nsamples = 2\nvalue = [1, 1]"] ;
33 -> 35 ;
36 [label="gini = 0.0\nsamples = 1\nvalue = [0, 1]"] ;
35 -> 36 ;
37 [label="gini = 0.0\nsamples = 1\nvalue = [1, 0]"] ;
35 -> 37 ;
38 [label="CreditScore <= 838.0\ngini = 0.4444\nsamples = 3\nvalue = [2, 1]"] ;
10 -> 38 ;
39 [label="gini = 0.0\nsamples = 1\nvalue = [0, 1]"] ;
38 -> 39 ;
40 [label="gini = 0.0\nsamples = 2\nvalue = [2, 0]"] ;
38 -> 40 ;
41 [label="gini = 0.0\nsamples = 1\nvalue = [0, 1]"] ;
9 -> 41 ;
42 [label="CreditScore <= 573.5\ngini = 0.3054\nsamples = 218\nvalue = [177, 41]"] ;
8 -> 42 ;
43 [label="CreditScore <= 516.0\ngini = 0.1884\nsamples = 57\nvalue = [51, 6]"] ;
42 -> 43 ;
44 [label="CreditScore <= 510.5\ngini = 0.3599\nsamples = 17\nvalue = [13, 4]"] ;
43 -> 44 ;
45 [label="EstimatedSalary <= 63577.0586\ngini = 0.2449\nsamples = 14\nvalue = [12, 2]"] ;
44 -> 45 ;
46 [label="EstimatedSalary <= 44047.8828\ngini = 0.4444\nsamples = 6\nvalue = [4, 2]"] ;
45 -> 46 ;
47 [label="gini = 0.0\nsamples = 4\nvalue = [4, 0]"] ;
46 -> 47 ;
48 [label="gini = 0.0\nsamples = 2\nvalue = [0, 2]"] ;
46 -> 48 ;
49 [label="gini = 0.0\nsamples = 8\nvalue = [8, 0]"] ;
45 -> 49 ;
50 [label="Age <= 37.5\ngini = 0.4444\nsamples = 3\nvalue = [1, 2]"] ;
44 -> 50 ;
51 [label="gini = 0.0\nsamples = 2\nvalue = [0, 2]"] ;
50 -> 51 ;
52 [label="gini = 0.0\nsamples = 1\nvalue = [1, 0]"] ;
50 -> 52 ;
53 [label="Age <= 37.5\ngini = 0.095\nsamples = 40\nvalue = [38, 2]"] ;
43 -> 53 ;
54 [label="gini = 0.0\nsamples = 26\nvalue = [26, 0]"] ;
53 -> 54 ;
55 [label="Tenure <= 6.5\ngini = 0.2449\nsamples = 14\nvalue = [12, 2]"] ;
53 -> 55 ;
56 [label="Tenure <= 3.5\ngini = 0.375\nsamples = 8\nvalue = [6, 2]"] ;
55 -> 56 ;
57 [label="gini = 0.0\nsamples = 5\nvalue = [5, 0]"] ;
56 -> 57 ;
58 [label="EstimatedSalary <= 160830.0625\ngini = 0.4444\nsamples = 3\nvalue = [1, 2]"] ;
56 -> 58 ;
59 [label="gini = 0.0\nsamples = 2\nvalue = [0, 2]"] ;
58 -> 59 ;
60 [label="gini = 0.0\nsamples = 1\nvalue = [1, 0]"] ;
58 -> 60 ;
61 [label="gini = 0.0\nsamples = 6\nvalue = [6, 0]"] ;
55 -> 61 ;
62 [label="CreditScore <= 615.5\ngini = 0.3403\nsamples = 161\nvalue = [126, 35]"] ;
42 -> 62 ;
63 [label="Geography_France <= 0.5\ngini = 0.4839\nsamples = 39\nvalue = [23, 16]"] ;
62 -> 63 ;
64 [label="Age <= 40.5\ngini = 0.3967\nsamples = 11\nvalue = [3, 8]"] ;
63 -> 64 ;
65 [label="CreditScore <= 612.5\ngini = 0.1975\nsamples = 9\nvalue = [1, 8]"] ;
64 -> 65 ;
66 [label="gini = 0.0\nsamples = 8\nvalue = [0, 8]"] ;
65 -> 66 ;
67 [label="gini = 0.0\nsamples = 1\nvalue = [1, 0]"] ;
65 -> 67 ;
68 [label="gini = 0.0\nsamples = 2\nvalue = [2, 0]"] ;
64 -> 68 ;
69 [label="CreditScore <= 612.5\ngini = 0.4082\nsamples = 28\nvalue = [20, 8]"] ;
63 -> 69 ;
70 [label="EstimatedSalary <= 170131.6562\ngini = 0.355\nsamples = 26\nvalue = [20, 6]"] ;
69 -> 70 ;
71 [label="Balance <= 72259.9141\ngini = 0.2873\nsamples = 23\nvalue = [19, 4]"] ;
70 -> 71 ;
72 [label="EstimatedSalary <= 100650.9922\ngini = 0.2355\nsamples = 22\nvalue = [19, 3]"] ;
71 -> 72 ;
73 [label="EstimatedSalary <= 95027.0156\ngini = 0.375\nsamples = 12\nvalue = [9, 3]"] ;
72 -> 73 ;
74 [label="Age <= 36.5\ngini = 0.2975\nsamples = 11\nvalue = [9, 2]"] ;
73 -> 74 ;
75 [label="Tenure <= 7.5\ngini = 0.48\nsamples = 5\nvalue = [3, 2]"] ;
74 -> 75 ;
76 [label="EstimatedSalary <= 75219.7656\ngini = 0.4444\nsamples = 3\nvalue = [1, 2]"] ;
75 -> 76 ;
77 [label="gini = 0.0\nsamples = 2\nvalue = [0, 2]"] ;
76 -> 77 ;
78 [label="gini = 0.0\nsamples = 1\nvalue = [1, 0]"] ;
76 -> 78 ;
79 [label="gini = 0.0\nsamples = 2\nvalue = [2, 0]"] ;
75 -> 79 ;
80 [label="gini = 0.0\nsamples = 6\nvalue = [6, 0]"] ;
74 -> 80 ;
81 [label="gini = 0.0\nsamples = 1\nvalue = [0, 1]"] ;
73 -> 81 ;
82 [label="gini = 0.0\nsamples = 10\nvalue = [10, 0]"] ;
72 -> 82 ;
83 [label="gini = 0.0\nsamples = 1\nvalue = [0, 1]"] ;
71 -> 83 ;
84 [label="Balance <= 49352.7969\ngini = 0.4444\nsamples = 3\nvalue = [1, 2]"] ;
70 -> 84 ;
85 [label="gini = 0.0\nsamples = 2\nvalue = [0, 2]"] ;
84 -> 85 ;
86 [label="gini = 0.0\nsamples = 1\nvalue = [1, 0]"] ;
84 -> 86 ;
87 [label="gini = 0.0\nsamples = 2\nvalue = [0, 2]"] ;
69 -> 87 ;
88 [label="Age <= 39.5\ngini = 0.263\nsamples = 122\nvalue = [103, 19]"] ;
62 -> 88 ;
89 [label="EstimatedSalary <= 5639.3203\ngini = 0.1913\nsamples = 84\nvalue = [75, 9]"] ;
88 -> 89 ;
90 [label="gini = 0.0\nsamples = 1\nvalue = [0, 1]"] ;
89 -> 90 ;
91 [label="Balance <= 74667.5859\ngini = 0.1742\nsamples = 83\nvalue = [75, 8]"] ;
89 -> 91 ;
92 [label="HasCrCard <= 0.5\ngini = 0.1579\nsamples = 81\nvalue = [74, 7]"] ;
91 -> 92 ;
93 [label="EstimatedSalary <= 173602.75\ngini = 0.2975\nsamples = 22\nvalue = [18, 4]"] ;
92 -> 93 ;
94 [label="IsActiveMember <= 0.5\ngini = 0.1884\nsamples = 19\nvalue = [17, 2]"] ;
93 -> 94 ;
95 [label="gini = 0.0\nsamples = 10\nvalue = [10, 0]"] ;
94 -> 95 ;
96 [label="Age <= 35.0\ngini = 0.3457\nsamples = 9\nvalue = [7, 2]"] ;
94 -> 96 ;
97 [label="CreditScore <= 648.5\ngini = 0.48\nsamples = 5\nvalue = [3, 2]"] ;
96 -> 97 ;
98 [label="gini = 0.0\nsamples = 2\nvalue = [2, 0]"] ;
97 -> 98 ;
99 [label="Tenure <= 5.0\ngini = 0.4444\nsamples = 3\nvalue = [1, 2]"] ;
97 -> 99 ;
100 [label="gini = 0.0\nsamples = 2\nvalue = [0, 2]"] ;
99 -> 100 ;
101 [label="gini = 0.0\nsamples = 1\nvalue = [1, 0]"] ;
99 -> 101 ;
102 [label="gini = 0.0\nsamples = 4\nvalue = [4, 0]"] ;
96 -> 102 ;
103 [label="EstimatedSalary <= 179878.7188\ngini = 0.4444\nsamples = 3\nvalue = [1, 2]"] ;
93 -> 103 ;
104 [label="gini = 0.0\nsamples = 2\nvalue = [0, 2]"] ;
103 -> 104 ;
105 [label="gini = 0.0\nsamples = 1\nvalue = [1, 0]"] ;
103 -> 105 ;
106 [label="Age <= 33.5\ngini = 0.0965\nsamples = 59\nvalue = [56, 3]"] ;
92 -> 106 ;
107 [label="CreditScore <= 644.5\ngini = 0.2604\nsamples = 13\nvalue = [11, 2]"] ;
106 -> 107 ;
108 [label="gini = 0.0\nsamples = 1\nvalue = [0, 1]"] ;
107 -> 108 ;
109 [label="Tenure <= 8.5\ngini = 0.1528\nsamples = 12\nvalue = [11, 1]"] ;
107 -> 109 ;
110 [label="gini = 0.0\nsamples = 9\nvalue = [9, 0]"] ;
109 -> 110 ;
111 [label="IsActiveMember <= 0.5\ngini = 0.4444\nsamples = 3\nvalue = [2, 1]"] ;
109 -> 111 ;
112 [label="gini = 0.0\nsamples = 1\nvalue = [0, 1]"] ;
111 -> 112 ;
113 [label="gini = 0.0\nsamples = 2\nvalue = [2, 0]"] ;
111 -> 113 ;
114 [label="CreditScore <= 784.5\ngini = 0.0425\nsamples = 46\nvalue = [45, 1]"] ;
106 -> 114 ;
115 [label="gini = 0.0\nsamples = 43\nvalue = [43, 0]"] ;
114 -> 115 ;
116 [label="EstimatedSalary <= 118825.8984\ngini = 0.4444\nsamples = 3\nvalue = [2, 1]"] ;
114 -> 116 ;
117 [label="gini = 0.0\nsamples = 2\nvalue = [2, 0]"] ;
116 -> 117 ;
118 [label="gini = 0.0\nsamples = 1\nvalue = [0, 1]"] ;
116 -> 118 ;
119 [label="Geography_France <= 0.5\ngini = 0.5\nsamples = 2\nvalue = [1, 1]"] ;
91 -> 119 ;
120 [label="gini = 0.0\nsamples = 1\nvalue = [0, 1]"] ;
119 -> 120 ;
121 [label="gini = 0.0\nsamples = 1\nvalue = [1, 0]"] ;
119 -> 121 ;
122 [label="Tenure <= 1.5\ngini = 0.3878\nsamples = 38\nvalue = [28, 10]"] ;
88 -> 122 ;
123 [label="gini = 0.0\nsamples = 7\nvalue = [7, 0]"] ;
122 -> 123 ;
124 [label="EstimatedSalary <= 106850.7422\ngini = 0.437\nsamples = 31\nvalue = [21, 10]"] ;
122 -> 124 ;
125 [label="EstimatedSalary <= 58989.6055\ngini = 0.3047\nsamples = 16\nvalue = [13, 3]"] ;
124 -> 125 ;
126 [label="CreditScore <= 689.5\ngini = 0.5\nsamples = 6\nvalue = [3, 3]"] ;
125 -> 126 ;
127 [label="gini = 0.0\nsamples = 3\nvalue = [3, 0]"] ;
126 -> 127 ;
128 [label="gini = 0.0\nsamples = 3\nvalue = [0, 3]"] ;
126 -> 128 ;
129 [label="gini = 0.0\nsamples = 10\nvalue = [10, 0]"] ;
125 -> 129 ;
130 [label="EstimatedSalary <= 139172.0938\ngini = 0.4978\nsamples = 15\nvalue = [8, 7]"] ;
124 -> 130 ;
131 [label="IsActiveMember <= 0.5\ngini = 0.375\nsamples = 8\nvalue = [2, 6]"] ;
130 -> 131 ;
132 [label="gini = 0.0\nsamples = 4\nvalue = [0, 4]"] ;
131 -> 132 ;
133 [label="CreditScore <= 700.0\ngini = 0.5\nsamples = 4\nvalue = [2, 2]"] ;
131 -> 133 ;
134 [label="gini = 0.0\nsamples = 2\nvalue = [0, 2]"] ;
133 -> 134 ;
135 [label="gini = 0.0\nsamples = 2\nvalue = [2, 0]"] ;
133 -> 135 ;
136 [label="HasCrCard <= 0.5\ngini = 0.2449\nsamples = 7\nvalue = [6, 1]"] ;
130 -> 136 ;
137 [label="IsActiveMember <= 0.5\ngini = 0.5\nsamples = 2\nvalue = [1, 1]"] ;
136 -> 137 ;
138 [label="gini = 0.0\nsamples = 1\nvalue = [1, 0]"] ;
137 -> 138 ;
139 [label="gini = 0.0\nsamples = 1\nvalue = [0, 1]"] ;
137 -> 139 ;
140 [label="gini = 0.0\nsamples = 5\nvalue = [5, 0]"] ;
136 -> 140 ;
141 [label="Age <= 41.5\ngini = 0.4197\nsamples = 247\nvalue = [173, 74]"] ;
5 -> 141 ;
142 [label="IsActiveMember <= 0.5\ngini = 0.3956\nsamples = 232\nvalue = [169, 63]"] ;
141 -> 142 ;
143 [label="Geography_France <= 0.5\ngini = 0.4624\nsamples = 113\nvalue = [72, 41]"] ;
142 -> 143 ;
144 [label="CreditScore <= 744.0\ngini = 0.4997\nsamples = 39\nvalue = [19, 20]"] ;
143 -> 144 ;
145 [label="EstimatedSalary <= 42714.7422\ngini = 0.4898\nsamples = 35\nvalue = [15, 20]"] ;
144 -> 145 ;
146 [label="Age <= 31.5\ngini = 0.2449\nsamples = 7\nvalue = [1, 6]"] ;
145 -> 146 ;
147 [label="Balance <= 17006.8145\ngini = 0.5\nsamples = 2\nvalue = [1, 1]"] ;
146 -> 147 ;
148 [label="gini = 0.0\nsamples = 1\nvalue = [0, 1]"] ;
147 -> 148 ;
149 [label="gini = 0.0\nsamples = 1\nvalue = [1, 0]"] ;
147 -> 149 ;
150 [label="gini = 0.0\nsamples = 5\nvalue = [0, 5]"] ;
146 -> 150 ;
151 [label="Tenure <= 2.5\ngini = 0.5\nsamples = 28\nvalue = [14, 14]"] ;
145 -> 151 ;
152 [label="gini = 0.0\nsamples = 5\nvalue = [0, 5]"] ;
151 -> 152 ;
153 [label="Age <= 37.0\ngini = 0.4764\nsamples = 23\nvalue = [14, 9]"] ;
151 -> 153 ;
154 [label="EstimatedSalary <= 135058.75\ngini = 0.3911\nsamples = 15\nvalue = [11, 4]"] ;
153 -> 154 ;
155 [label="HasCrCard <= 0.5\ngini = 0.2778\nsamples = 12\nvalue = [10, 2]"] ;
154 -> 155 ;
156 [label="gini = 0.0\nsamples = 1\nvalue = [0, 1]"] ;
155 -> 156 ;
157 [label="Tenure <= 7.5\ngini = 0.1653\nsamples = 11\nvalue = [10, 1]"] ;
155 -> 157 ;
158 [label="gini = 0.0\nsamples = 7\nvalue = [7, 0]"] ;
157 -> 158 ;
159 [label="Tenure <= 9.0\ngini = 0.375\nsamples = 4\nvalue = [3, 1]"] ;
157 -> 159 ;
160 [label="EstimatedSalary <= 115163.7422\ngini = 0.5\nsamples = 2\nvalue = [1, 1]"] ;
159 -> 160 ;
161 [label="gini = 0.0\nsamples = 1\nvalue = [0, 1]"] ;
160 -> 161 ;
162 [label="gini = 0.0\nsamples = 1\nvalue = [1, 0]"] ;
160 -> 162 ;
163 [label="gini = 0.0\nsamples = 2\nvalue = [2, 0]"] ;
159 -> 163 ;
164 [label="EstimatedSalary <= 153172.6562\ngini = 0.4444\nsamples = 3\nvalue = [1, 2]"] ;
154 -> 164 ;
165 [label="gini = 0.0\nsamples = 2\nvalue = [0, 2]"] ;
164 -> 165 ;
166 [label="gini = 0.0\nsamples = 1\nvalue = [1, 0]"] ;
164 -> 166 ;
167 [label="EstimatedSalary <= 194587.6875\ngini = 0.4688\nsamples = 8\nvalue = [3, 5]"] ;
153 -> 167 ;
168 [label="Tenure <= 7.5\ngini = 0.4082\nsamples = 7\nvalue = [2, 5]"] ;
167 -> 168 ;
169 [label="gini = 0.0\nsamples = 4\nvalue = [0, 4]"] ;
168 -> 169 ;
170 [label="Age <= 40.5\ngini = 0.4444\nsamples = 3\nvalue = [2, 1]"] ;
168 -> 170 ;
171 [label="gini = 0.0\nsamples = 2\nvalue = [2, 0]"] ;
170 -> 171 ;
172 [label="gini = 0.0\nsamples = 1\nvalue = [0, 1]"] ;
170 -> 172 ;
173 [label="gini = 0.0\nsamples = 1\nvalue = [1, 0]"] ;
167 -> 173 ;
174 [label="gini = 0.0\nsamples = 4\nvalue = [4, 0]"] ;
144 -> 174 ;
175 [label="EstimatedSalary <= 131472.5781\ngini = 0.4065\nsamples = 74\nvalue = [53, 21]"] ;
143 -> 175 ;
176 [label="Tenure <= 2.5\ngini = 0.3096\nsamples = 47\nvalue = [38, 9]"] ;
175 -> 176 ;
177 [label="gini = 0.0\nsamples = 11\nvalue = [11, 0]"] ;
176 -> 177 ;
178 [label="CreditScore <= 734.0\ngini = 0.375\nsamples = 36\nvalue = [27, 9]"] ;
176 -> 178 ;
179 [label="Tenure <= 6.5\ngini = 0.32\nsamples = 30\nvalue = [24, 6]"] ;
178 -> 179 ;
180 [label="EstimatedSalary <= 77087.6875\ngini = 0.1884\nsamples = 19\nvalue = [17, 2]"] ;
179 -> 180 ;
181 [label="gini = 0.0\nsamples = 13\nvalue = [13, 0]"] ;
180 -> 181 ;
182 [label="CreditScore <= 617.0\ngini = 0.4444\nsamples = 6\nvalue = [4, 2]"] ;
180 -> 182 ;
183 [label="gini = 0.0\nsamples = 2\nvalue = [0, 2]"] ;
182 -> 183 ;
184 [label="gini = 0.0\nsamples = 4\nvalue = [4, 0]"] ;
182 -> 184 ;
185 [label="Balance <= 21078.5391\ngini = 0.4628\nsamples = 11\nvalue = [7, 4]"] ;
179 -> 185 ;
186 [label="CreditScore <= 681.5\ngini = 0.3457\nsamples = 9\nvalue = [7, 2]"] ;
185 -> 186 ;
187 [label="Tenure <= 9.5\ngini = 0.2188\nsamples = 8\nvalue = [7, 1]"] ;
186 -> 187 ;
188 [label="gini = 0.0\nsamples = 6\nvalue = [6, 0]"] ;
187 -> 188 ;
189 [label="Age <= 37.0\ngini = 0.5\nsamples = 2\nvalue = [1, 1]"] ;
187 -> 189 ;
190 [label="gini = 0.0\nsamples = 1\nvalue = [1, 0]"] ;
189 -> 190 ;
191 [label="gini = 0.0\nsamples = 1\nvalue = [0, 1]"] ;
189 -> 191 ;
192 [label="gini = 0.0\nsamples = 1\nvalue = [0, 1]"] ;
186 -> 192 ;
193 [label="gini = 0.0\nsamples = 2\nvalue = [0, 2]"] ;
185 -> 193 ;
194 [label="EstimatedSalary <= 24191.8555\ngini = 0.5\nsamples = 6\nvalue = [3, 3]"] ;
178 -> 194 ;
195 [label="gini = 0.0\nsamples = 2\nvalue = [2, 0]"] ;
194 -> 195 ;
196 [label="EstimatedSalary <= 67761.7969\ngini = 0.375\nsamples = 4\nvalue = [1, 3]"] ;
194 -> 196 ;
197 [label="gini = 0.0\nsamples = 3\nvalue = [0, 3]"] ;
196 -> 197 ;
198 [label="gini = 0.0\nsamples = 1\nvalue = [1, 0]"] ;
196 -> 198 ;
199 [label="EstimatedSalary <= 151888.5\ngini = 0.4938\nsamples = 27\nvalue = [15, 12]"] ;
175 -> 199 ;
200 [label="Balance <= 68841.5781\ngini = 0.32\nsamples = 10\nvalue = [2, 8]"] ;
199 -> 200 ;
201 [label="Age <= 38.5\ngini = 0.1975\nsamples = 9\nvalue = [1, 8]"] ;
200 -> 201 ;
202 [label="gini = 0.0\nsamples = 7\nvalue = [0, 7]"] ;
201 -> 202 ;
203 [label="Tenure <= 8.5\ngini = 0.5\nsamples = 2\nvalue = [1, 1]"] ;
201 -> 203 ;
204 [label="gini = 0.0\nsamples = 1\nvalue = [1, 0]"] ;
203 -> 204 ;
205 [label="gini = 0.0\nsamples = 1\nvalue = [0, 1]"] ;
203 -> 205 ;
206 [label="gini = 0.0\nsamples = 1\nvalue = [1, 0]"] ;
200 -> 206 ;
207 [label="EstimatedSalary <= 167568.3438\ngini = 0.3599\nsamples = 17\nvalue = [13, 4]"] ;
199 -> 207 ;
208 [label="gini = 0.0\nsamples = 8\nvalue = [8, 0]"] ;
207 -> 208 ;
209 [label="Tenure <= 3.5\ngini = 0.4938\nsamples = 9\nvalue = [5, 4]"] ;
207 -> 209 ;
210 [label="gini = 0.0\nsamples = 4\nvalue = [4, 0]"] ;
209 -> 210 ;
211 [label="CreditScore <= 615.0\ngini = 0.32\nsamples = 5\nvalue = [1, 4]"] ;
209 -> 211 ;
212 [label="Age <= 38.0\ngini = 0.5\nsamples = 2\nvalue = [1, 1]"] ;
211 -> 212 ;
213 [label="gini = 0.0\nsamples = 1\nvalue = [1, 0]"] ;
212 -> 213 ;
214 [label="gini = 0.0\nsamples = 1\nvalue = [0, 1]"] ;
212 -> 214 ;
215 [label="gini = 0.0\nsamples = 3\nvalue = [0, 3]"] ;
211 -> 215 ;
216 [label="EstimatedSalary <= 116449.7109\ngini = 0.3014\nsamples = 119\nvalue = [97, 22]"] ;
142 -> 216 ;
217 [label="Age <= 34.5\ngini = 0.2137\nsamples = 74\nvalue = [65, 9]"] ;
216 -> 217 ;
218 [label="EstimatedSalary <= 71664.0625\ngini = 0.0907\nsamples = 42\nvalue = [40, 2]"] ;
217 -> 218 ;
219 [label="EstimatedSalary <= 70107.3438\ngini = 0.18\nsamples = 20\nvalue = [18, 2]"] ;
218 -> 219 ;
220 [label="Tenure <= 2.5\ngini = 0.0997\nsamples = 19\nvalue = [18, 1]"] ;
219 -> 220 ;
221 [label="Age <= 29.5\ngini = 0.375\nsamples = 4\nvalue = [3, 1]"] ;
220 -> 221 ;
222 [label="gini = 0.0\nsamples = 2\nvalue = [2, 0]"] ;
221 -> 222 ;
223 [label="Geography_France <= 0.5\ngini = 0.5\nsamples = 2\nvalue = [1, 1]"] ;
221 -> 223 ;
224 [label="gini = 0.0\nsamples = 1\nvalue = [0, 1]"] ;
223 -> 224 ;
225 [label="gini = 0.0\nsamples = 1\nvalue = [1, 0]"] ;
223 -> 225 ;
226 [label="gini = 0.0\nsamples = 15\nvalue = [15, 0]"] ;
220 -> 226 ;
227 [label="gini = 0.0\nsamples = 1\nvalue = [0, 1]"] ;
219 -> 227 ;
228 [label="gini = 0.0\nsamples = 22\nvalue = [22, 0]"] ;
218 -> 228 ;
229 [label="HasCrCard <= 0.5\ngini = 0.3418\nsamples = 32\nvalue = [25, 7]"] ;
217 -> 229 ;
230 [label="Tenure <= 3.5\ngini = 0.4938\nsamples = 9\nvalue = [5, 4]"] ;
229 -> 230 ;
231 [label="gini = 0.0\nsamples = 3\nvalue = [0, 3]"] ;
230 -> 231 ;
232 [label="Tenure <= 6.5\ngini = 0.2778\nsamples = 6\nvalue = [5, 1]"] ;
230 -> 232 ;
233 [label="gini = 0.0\nsamples = 3\nvalue = [3, 0]"] ;
232 -> 233 ;
234 [label="EstimatedSalary <= 33766.9453\ngini = 0.4444\nsamples = 3\nvalue = [2, 1]"] ;
232 -> 234 ;
235 [label="gini = 0.0\nsamples = 2\nvalue = [2, 0]"] ;
234 -> 235 ;
236 [label="gini = 0.0\nsamples = 1\nvalue = [0, 1]"] ;
234 -> 236 ;
237 [label="EstimatedSalary <= 50866.3398\ngini = 0.2268\nsamples = 23\nvalue = [20, 3]"] ;
229 -> 237 ;
238 [label="EstimatedSalary <= 38399.0\ngini = 0.3967\nsamples = 11\nvalue = [8, 3]"] ;
237 -> 238 ;
239 [label="Age <= 36.5\ngini = 0.1975\nsamples = 9\nvalue = [8, 1]"] ;
238 -> 239 ;
240 [label="CreditScore <= 713.5\ngini = 0.5\nsamples = 2\nvalue = [1, 1]"] ;
239 -> 240 ;
241 [label="gini = 0.0\nsamples = 1\nvalue = [0, 1]"] ;
240 -> 241 ;
242 [label="gini = 0.0\nsamples = 1\nvalue = [1, 0]"] ;
240 -> 242 ;
243 [label="gini = 0.0\nsamples = 7\nvalue = [7, 0]"] ;
239 -> 243 ;
244 [label="gini = 0.0\nsamples = 2\nvalue = [0, 2]"] ;
238 -> 244 ;
245 [label="gini = 0.0\nsamples = 12\nvalue = [12, 0]"] ;
237 -> 245 ;
246 [label="Balance <= 42957.2539\ngini = 0.4109\nsamples = 45\nvalue = [32, 13]"] ;
216 -> 246 ;
247 [label="EstimatedSalary <= 145972.0\ngini = 0.355\nsamples = 39\nvalue = [30, 9]"] ;
246 -> 247 ;
248 [label="CreditScore <= 515.0\ngini = 0.4898\nsamples = 14\nvalue = [8, 6]"] ;
247 -> 248 ;
249 [label="gini = 0.0\nsamples = 2\nvalue = [2, 0]"] ;
248 -> 249 ;
250 [label="Tenure <= 2.5\ngini = 0.5\nsamples = 12\nvalue = [6, 6]"] ;
248 -> 250 ;
251 [label="gini = 0.0\nsamples = 2\nvalue = [2, 0]"] ;
250 -> 251 ;
252 [label="EstimatedSalary <= 140989.8438\ngini = 0.48\nsamples = 10\nvalue = [4, 6]"] ;
250 -> 252 ;
253 [label="Age <= 32.5\ngini = 0.4898\nsamples = 7\nvalue = [4, 3]"] ;
252 -> 253 ;
254 [label="gini = 0.0\nsamples = 2\nvalue = [0, 2]"] ;
253 -> 254 ;
255 [label="EstimatedSalary <= 118756.6719\ngini = 0.32\nsamples = 5\nvalue = [4, 1]"] ;
253 -> 255 ;
256 [label="gini = 0.0\nsamples = 1\nvalue = [0, 1]"] ;
255 -> 256 ;
257 [label="gini = 0.0\nsamples = 4\nvalue = [4, 0]"] ;
255 -> 257 ;
258 [label="gini = 0.0\nsamples = 3\nvalue = [0, 3]"] ;
252 -> 258 ;
259 [label="Age <= 31.5\ngini = 0.2112\nsamples = 25\nvalue = [22, 3]"] ;
247 -> 259 ;
260 [label="EstimatedSalary <= 175797.7812\ngini = 0.4898\nsamples = 7\nvalue = [4, 3]"] ;
259 -> 260 ;
261 [label="gini = 0.0\nsamples = 3\nvalue = [3, 0]"] ;
260 -> 261 ;
262 [label="Geography_France <= 0.5\ngini = 0.375\nsamples = 4\nvalue = [1, 3]"] ;
260 -> 262 ;
263 [label="gini = 0.0\nsamples = 1\nvalue = [1, 0]"] ;
262 -> 263 ;
264 [label="gini = 0.0\nsamples = 3\nvalue = [0, 3]"] ;
262 -> 264 ;
265 [label="gini = 0.0\nsamples = 18\nvalue = [18, 0]"] ;
259 -> 265 ;
266 [label="Balance <= 63717.3828\ngini = 0.4444\nsamples = 6\nvalue = [2, 4]"] ;
246 -> 266 ;
267 [label="gini = 0.0\nsamples = 3\nvalue = [0, 3]"] ;
266 -> 267 ;
268 [label="Balance <= 66470.875\ngini = 0.4444\nsamples = 3\nvalue = [2, 1]"] ;
266 -> 268 ;
269 [label="gini = 0.0\nsamples = 1\nvalue = [1, 0]"] ;
268 -> 269 ;
270 [label="Tenure <= 4.5\ngini = 0.5\nsamples = 2\nvalue = [1, 1]"] ;
268 -> 270 ;
271 [label="gini = 0.0\nsamples = 1\nvalue = [1, 0]"] ;
270 -> 271 ;
272 [label="gini = 0.0\nsamples = 1\nvalue = [0, 1]"] ;
270 -> 272 ;
273 [label="CreditScore <= 611.0\ngini = 0.3911\nsamples = 15\nvalue = [4, 11]"] ;
141 -> 273 ;
274 [label="CreditScore <= 577.5\ngini = 0.4898\nsamples = 7\nvalue = [4, 3]"] ;
273 -> 274 ;
275 [label="EstimatedSalary <= 65243.5625\ngini = 0.375\nsamples = 4\nvalue = [1, 3]"] ;
274 -> 275 ;
276 [label="gini = 0.0\nsamples = 1\nvalue = [1, 0]"] ;
275 -> 276 ;
277 [label="gini = 0.0\nsamples = 3\nvalue = [0, 3]"] ;
275 -> 277 ;
278 [label="gini = 0.0\nsamples = 3\nvalue = [3, 0]"] ;
274 -> 278 ;
279 [label="gini = 0.0\nsamples = 8\nvalue = [0, 8]"] ;
273 -> 279 ;
280 [label="Balance <= 177775.5781\ngini = 0.1757\nsamples = 1531\nvalue = [1382, 149]"] ;
4 -> 280 ;
281 [label="Age <= 39.5\ngini = 0.1599\nsamples = 1472\nvalue = [1343, 129]"] ;
280 -> 281 ;
282 [label="IsActiveMember <= 0.5\ngini = 0.1314\nsamples = 1245\nvalue = [1157, 88]"] ;
281 -> 282 ;
283 [label="Balance <= 171881.125\ngini = 0.1741\nsamples = 623\nvalue = [563, 60]"] ;
282 -> 283 ;
284 [label="CreditScore <= 667.5\ngini = 0.1643\nsamples = 609\nvalue = [554, 55]"] ;
283 -> 284 ;
285 [label="CreditScore <= 426.0\ngini = 0.1241\nsamples = 346\nvalue = [323, 23]"] ;
284 -> 285 ;
286 [label="Tenure <= 6.5\ngini = 0.5\nsamples = 2\nvalue = [1, 1]"] ;
285 -> 286 ;
287 [label="gini = 0.0\nsamples = 1\nvalue = [0, 1]"] ;
286 -> 287 ;
288 [label="gini = 0.0\nsamples = 1\nvalue = [1, 0]"] ;
286 -> 288 ;
289 [label="Geography_France <= 0.5\ngini = 0.1197\nsamples = 344\nvalue = [322, 22]"] ;
285 -> 289 ;
290 [label="Balance <= 80373.7031\ngini = 0.2011\nsamples = 97\nvalue = [86, 11]"] ;
289 -> 290 ;
291 [label="Balance <= 77938.8594\ngini = 0.5\nsamples = 4\nvalue = [2, 2]"] ;
290 -> 291 ;
292 [label="gini = 0.0\nsamples = 2\nvalue = [2, 0]"] ;
291 -> 292 ;
293 [label="gini = 0.0\nsamples = 2\nvalue = [0, 2]"] ;
291 -> 293 ;
294 [label="CreditScore <= 633.0\ngini = 0.1748\nsamples = 93\nvalue = [84, 9]"] ;
290 -> 294 ;
295 [label="CreditScore <= 629.5\ngini = 0.2326\nsamples = 67\nvalue = [58, 9]"] ;
294 -> 295 ;
296 [label="EstimatedSalary <= 3399.03\ngini = 0.1551\nsamples = 59\nvalue = [54, 5]"] ;
295 -> 296 ;
297 [label="gini = 0.0\nsamples = 1\nvalue = [0, 1]"] ;
296 -> 297 ;
298 [label="Age <= 25.0\ngini = 0.1284\nsamples = 58\nvalue = [54, 4]"] ;
296 -> 298 ;
299 [label="Gender_Female <= 0.5\ngini = 0.5\nsamples = 2\nvalue = [1, 1]"] ;
298 -> 299 ;
300 [label="gini = 0.0\nsamples = 1\nvalue = [0, 1]"] ;
299 -> 300 ;
301 [label="gini = 0.0\nsamples = 1\nvalue = [1, 0]"] ;
299 -> 301 ;
302 [label="CreditScore <= 559.5\ngini = 0.1014\nsamples = 56\nvalue = [53, 3]"] ;
298 -> 302 ;
303 [label="CreditScore <= 558.0\ngini = 0.2041\nsamples = 26\nvalue = [23, 3]"] ;
302 -> 303 ;
304 [label="EstimatedSalary <= 169612.1562\ngini = 0.1472\nsamples = 25\nvalue = [23, 2]"] ;
303 -> 304 ;
305 [label="Age <= 30.5\ngini = 0.0868\nsamples = 22\nvalue = [21, 1]"] ;
304 -> 305 ;
306 [label="CreditScore <= 533.0\ngini = 0.32\nsamples = 5\nvalue = [4, 1]"] ;
305 -> 306 ;
307 [label="gini = 0.0\nsamples = 4\nvalue = [4, 0]"] ;
306 -> 307 ;
308 [label="gini = 0.0\nsamples = 1\nvalue = [0, 1]"] ;
306 -> 308 ;
309 [label="gini = 0.0\nsamples = 17\nvalue = [17, 0]"] ;
305 -> 309 ;
310 [label="Balance <= 133286.7188\ngini = 0.4444\nsamples = 3\nvalue = [2, 1]"] ;
304 -> 310 ;
311 [label="gini = 0.0\nsamples = 1\nvalue = [0, 1]"] ;
310 -> 311 ;
312 [label="gini = 0.0\nsamples = 2\nvalue = [2, 0]"] ;
310 -> 312 ;
313 [label="gini = 0.0\nsamples = 1\nvalue = [0, 1]"] ;
303 -> 313 ;
314 [label="gini = 0.0\nsamples = 30\nvalue = [30, 0]"] ;
302 -> 314 ;
315 [label="EstimatedSalary <= 33337.8281\ngini = 0.5\nsamples = 8\nvalue = [4, 4]"] ;
295 -> 315 ;
316 [label="gini = 0.0\nsamples = 2\nvalue = [2, 0]"] ;
315 -> 316 ;
317 [label="EstimatedSalary <= 87484.8438\ngini = 0.4444\nsamples = 6\nvalue = [2, 4]"] ;
315 -> 317 ;
318 [label="gini = 0.0\nsamples = 3\nvalue = [0, 3]"] ;
317 -> 318 ;
319 [label="Tenure <= 5.5\ngini = 0.4444\nsamples = 3\nvalue = [2, 1]"] ;
317 -> 319 ;
320 [label="gini = 0.0\nsamples = 2\nvalue = [2, 0]"] ;
319 -> 320 ;
321 [label="gini = 0.0\nsamples = 1\nvalue = [0, 1]"] ;
319 -> 321 ;
322 [label="gini = 0.0\nsamples = 26\nvalue = [26, 0]"] ;
294 -> 322 ;
323 [label="EstimatedSalary <= 190067.8281\ngini = 0.0851\nsamples = 247\nvalue = [236, 11]"] ;
289 -> 323 ;
324 [label="CreditScore <= 515.0\ngini = 0.0663\nsamples = 233\nvalue = [225, 8]"] ;
323 -> 324 ;
325 [label="CreditScore <= 513.0\ngini = 0.1855\nsamples = 29\nvalue = [26, 3]"] ;
324 -> 325 ;
326 [label="Balance <= 86270.0469\ngini = 0.1372\nsamples = 27\nvalue = [25, 2]"] ;
325 -> 326 ;
327 [label="EstimatedSalary <= 125589.7812\ngini = 0.5\nsamples = 2\nvalue = [1, 1]"] ;
326 -> 327 ;
328 [label="gini = 0.0\nsamples = 1\nvalue = [0, 1]"] ;
327 -> 328 ;
329 [label="gini = 0.0\nsamples = 1\nvalue = [1, 0]"] ;
327 -> 329 ;
330 [label="Tenure <= 8.5\ngini = 0.0768\nsamples = 25\nvalue = [24, 1]"] ;
326 -> 330 ;
331 [label="gini = 0.0\nsamples = 21\nvalue = [21, 0]"] ;
330 -> 331 ;
332 [label="CreditScore <= 454.5\ngini = 0.375\nsamples = 4\nvalue = [3, 1]"] ;
330 -> 332 ;
333 [label="gini = 0.0\nsamples = 1\nvalue = [0, 1]"] ;
332 -> 333 ;
334 [label="gini = 0.0\nsamples = 3\nvalue = [3, 0]"] ;
332 -> 334 ;
335 [label="Tenure <= 3.5\ngini = 0.5\nsamples = 2\nvalue = [1, 1]"] ;
325 -> 335 ;
336 [label="gini = 0.0\nsamples = 1\nvalue = [1, 0]"] ;
335 -> 336 ;
337 [label="gini = 0.0\nsamples = 1\nvalue = [0, 1]"] ;
335 -> 337 ;
338 [label="EstimatedSalary <= 151774.375\ngini = 0.0478\nsamples = 204\nvalue = [199, 5]"] ;
324 -> 338 ;
339 [label="Balance <= 154227.9688\ngini = 0.0244\nsamples = 162\nvalue = [160, 2]"] ;
338 -> 339 ;
340 [label="Balance <= 96743.8203\ngini = 0.0134\nsamples = 148\nvalue = [147, 1]"] ;
339 -> 340 ;
341 [label="Balance <= 96566.3359\ngini = 0.0624\nsamples = 31\nvalue = [30, 1]"] ;
340 -> 341 ;
342 [label="gini = 0.0\nsamples = 30\nvalue = [30, 0]"] ;
341 -> 342 ;
343 [label="gini = 0.0\nsamples = 1\nvalue = [0, 1]"] ;
341 -> 343 ;
344 [label="gini = 0.0\nsamples = 117\nvalue = [117, 0]"] ;
340 -> 344 ;
345 [label="Balance <= 154818.0938\ngini = 0.1327\nsamples = 14\nvalue = [13, 1]"] ;
339 -> 345 ;
346 [label="gini = 0.0\nsamples = 1\nvalue = [0, 1]"] ;
345 -> 346 ;
347 [label="gini = 0.0\nsamples = 13\nvalue = [13, 0]"] ;
345 -> 347 ;
348 [label="EstimatedSalary <= 153119.1875\ngini = 0.1327\nsamples = 42\nvalue = [39, 3]"] ;
338 -> 348 ;
349 [label="gini = 0.0\nsamples = 1\nvalue = [0, 1]"] ;
348 -> 349 ;
350 [label="Balance <= 83640.1953\ngini = 0.0928\nsamples = 41\nvalue = [39, 2]"] ;
348 -> 350 ;
351 [label="gini = 0.0\nsamples = 1\nvalue = [0, 1]"] ;
350 -> 351 ;
352 [label="EstimatedSalary <= 156378.1562\ngini = 0.0487\nsamples = 40\nvalue = [39, 1]"] ;
350 -> 352 ;
353 [label="Balance <= 119344.5\ngini = 0.375\nsamples = 4\nvalue = [3, 1]"] ;
352 -> 353 ;
354 [label="gini = 0.0\nsamples = 3\nvalue = [3, 0]"] ;
353 -> 354 ;
355 [label="gini = 0.0\nsamples = 1\nvalue = [0, 1]"] ;
353 -> 355 ;
356 [label="gini = 0.0\nsamples = 36\nvalue = [36, 0]"] ;
352 -> 356 ;
357 [label="CreditScore <= 633.5\ngini = 0.3367\nsamples = 14\nvalue = [11, 3]"] ;
323 -> 357 ;
358 [label="Tenure <= 2.5\ngini = 0.2604\nsamples = 13\nvalue = [11, 2]"] ;
357 -> 358 ;
359 [label="Balance <= 118488.5078\ngini = 0.4444\nsamples = 6\nvalue = [4, 2]"] ;
358 -> 359 ;
360 [label="gini = 0.0\nsamples = 4\nvalue = [4, 0]"] ;
359 -> 360 ;
361 [label="gini = 0.0\nsamples = 2\nvalue = [0, 2]"] ;
359 -> 361 ;
362 [label="gini = 0.0\nsamples = 7\nvalue = [7, 0]"] ;
358 -> 362 ;
363 [label="gini = 0.0\nsamples = 1\nvalue = [0, 1]"] ;
357 -> 363 ;
364 [label="Age <= 22.5\ngini = 0.2137\nsamples = 263\nvalue = [231, 32]"] ;
284 -> 364 ;
365 [label="Age <= 21.5\ngini = 0.5\nsamples = 8\nvalue = [4, 4]"] ;
364 -> 365 ;
366 [label="gini = 0.0\nsamples = 4\nvalue = [4, 0]"] ;
365 -> 366 ;
367 [label="gini = 0.0\nsamples = 4\nvalue = [0, 4]"] ;
365 -> 367 ;
368 [label="EstimatedSalary <= 27321.4258\ngini = 0.1955\nsamples = 255\nvalue = [227, 28]"] ;
364 -> 368 ;
369 [label="EstimatedSalary <= 20414.3516\ngini = 0.3813\nsamples = 39\nvalue = [29, 10]"] ;
368 -> 369 ;
370 [label="Tenure <= 8.5\ngini = 0.2706\nsamples = 31\nvalue = [26, 5]"] ;
369 -> 370 ;
371 [label="Gender_Female <= 0.5\ngini = 0.2311\nsamples = 30\nvalue = [26, 4]"] ;
370 -> 371 ;
372 [label="Tenure <= 1.5\ngini = 0.0907\nsamples = 21\nvalue = [20, 1]"] ;
371 -> 372 ;
373 [label="CreditScore <= 742.5\ngini = 0.4444\nsamples = 3\nvalue = [2, 1]"] ;
372 -> 373 ;
374 [label="gini = 0.0\nsamples = 2\nvalue = [2, 0]"] ;
373 -> 374 ;
375 [label="gini = 0.0\nsamples = 1\nvalue = [0, 1]"] ;
373 -> 375 ;
376 [label="gini = 0.0\nsamples = 18\nvalue = [18, 0]"] ;
372 -> 376 ;
377 [label="Tenure <= 5.5\ngini = 0.4444\nsamples = 9\nvalue = [6, 3]"] ;
371 -> 377 ;
378 [label="EstimatedSalary <= 15533.6494\ngini = 0.48\nsamples = 5\nvalue = [2, 3]"] ;
377 -> 378 ;
379 [label="gini = 0.0\nsamples = 3\nvalue = [0, 3]"] ;
378 -> 379 ;
380 [label="gini = 0.0\nsamples = 2\nvalue = [2, 0]"] ;
378 -> 380 ;
381 [label="gini = 0.0\nsamples = 4\nvalue = [4, 0]"] ;
377 -> 381 ;
382 [label="gini = 0.0\nsamples = 1\nvalue = [0, 1]"] ;
370 -> 382 ;
383 [label="Geography_France <= 0.5\ngini = 0.4688\nsamples = 8\nvalue = [3, 5]"] ;
369 -> 383 ;
384 [label="gini = 0.0\nsamples = 1\nvalue = [1, 0]"] ;
383 -> 384 ;
385 [label="Balance <= 88477.4688\ngini = 0.4082\nsamples = 7\nvalue = [2, 5]"] ;
383 -> 385 ;
386 [label="gini = 0.0\nsamples = 1\nvalue = [1, 0]"] ;
385 -> 386 ;
387 [label="EstimatedSalary <= 21540.3594\ngini = 0.2778\nsamples = 6\nvalue = [1, 5]"] ;
385 -> 387 ;
388 [label="CreditScore <= 704.0\ngini = 0.5\nsamples = 2\nvalue = [1, 1]"] ;
387 -> 388 ;
389 [label="gini = 0.0\nsamples = 1\nvalue = [0, 1]"] ;
388 -> 389 ;
390 [label="gini = 0.0\nsamples = 1\nvalue = [1, 0]"] ;
388 -> 390 ;
391 [label="gini = 0.0\nsamples = 4\nvalue = [0, 4]"] ;
387 -> 391 ;
392 [label="CreditScore <= 693.5\ngini = 0.1528\nsamples = 216\nvalue = [198, 18]"] ;
368 -> 392 ;
393 [label="EstimatedSalary <= 92026.7656\ngini = 0.2854\nsamples = 58\nvalue = [48, 10]"] ;
392 -> 393 ;
394 [label="Tenure <= 5.5\ngini = 0.4628\nsamples = 22\nvalue = [14, 8]"] ;
393 -> 394 ;
395 [label="EstimatedSalary <= 36882.5547\ngini = 0.4082\nsamples = 7\nvalue = [2, 5]"] ;
394 -> 395 ;
396 [label="gini = 0.0\nsamples = 1\nvalue = [1, 0]"] ;
395 -> 396 ;
397 [label="Balance <= 111110.5234\ngini = 0.2778\nsamples = 6\nvalue = [1, 5]"] ;
395 -> 397 ;
398 [label="CreditScore <= 679.0\ngini = 0.5\nsamples = 2\nvalue = [1, 1]"] ;
397 -> 398 ;
399 [label="gini = 0.0\nsamples = 1\nvalue = [0, 1]"] ;
398 -> 399 ;
400 [label="gini = 0.0\nsamples = 1\nvalue = [1, 0]"] ;
398 -> 400 ;
401 [label="gini = 0.0\nsamples = 4\nvalue = [0, 4]"] ;
397 -> 401 ;
402 [label="EstimatedSalary <= 71321.8125\ngini = 0.32\nsamples = 15\nvalue = [12, 3]"] ;
394 -> 402 ;
403 [label="gini = 0.0\nsamples = 8\nvalue = [8, 0]"] ;
402 -> 403 ;
404 [label="HasCrCard <= 0.5\ngini = 0.4898\nsamples = 7\nvalue = [4, 3]"] ;
402 -> 404 ;
405 [label="EstimatedSalary <= 77382.1016\ngini = 0.32\nsamples = 5\nvalue = [4, 1]"] ;
404 -> 405 ;
406 [label="gini = 0.0\nsamples = 1\nvalue = [0, 1]"] ;
405 -> 406 ;
407 [label="gini = 0.0\nsamples = 4\nvalue = [4, 0]"] ;
405 -> 407 ;
408 [label="gini = 0.0\nsamples = 2\nvalue = [0, 2]"] ;
404 -> 408 ;
409 [label="Age <= 35.5\ngini = 0.1049\nsamples = 36\nvalue = [34, 2]"] ;
393 -> 409 ;
410 [label="gini = 0.0\nsamples = 27\nvalue = [27, 0]"] ;
409 -> 410 ;
411 [label="EstimatedSalary <= 153117.625\ngini = 0.3457\nsamples = 9\nvalue = [7, 2]"] ;
409 -> 411 ;
412 [label="gini = 0.0\nsamples = 7\nvalue = [7, 0]"] ;
411 -> 412 ;
413 [label="gini = 0.0\nsamples = 2\nvalue = [0, 2]"] ;
411 -> 413 ;
414 [label="Age <= 37.5\ngini = 0.0961\nsamples = 158\nvalue = [150, 8]"] ;
392 -> 414 ;
415 [label="EstimatedSalary <= 129725.4297\ngini = 0.0588\nsamples = 132\nvalue = [128, 4]"] ;
414 -> 415 ;
416 [label="gini = 0.0\nsamples = 77\nvalue = [77, 0]"] ;
415 -> 416 ;
417 [label="EstimatedSalary <= 132447.2344\ngini = 0.1349\nsamples = 55\nvalue = [51, 4]"] ;
415 -> 417 ;
418 [label="gini = 0.0\nsamples = 1\nvalue = [0, 1]"] ;
417 -> 418 ;
419 [label="Tenure <= 2.5\ngini = 0.1049\nsamples = 54\nvalue = [51, 3]"] ;
417 -> 419 ;
420 [label="Balance <= 147047.75\ngini = 0.2449\nsamples = 14\nvalue = [12, 2]"] ;
419 -> 420 ;
421 [label="HasCrCard <= 0.5\ngini = 0.1528\nsamples = 12\nvalue = [11, 1]"] ;
420 -> 421 ;
422 [label="Gender_Female <= 0.5\ngini = 0.4444\nsamples = 3\nvalue = [2, 1]"] ;
421 -> 422 ;
423 [label="gini = 0.0\nsamples = 2\nvalue = [2, 0]"] ;
422 -> 423 ;
424 [label="gini = 0.0\nsamples = 1\nvalue = [0, 1]"] ;
422 -> 424 ;
425 [label="gini = 0.0\nsamples = 9\nvalue = [9, 0]"] ;
421 -> 425 ;
426 [label="Age <= 33.5\ngini = 0.5\nsamples = 2\nvalue = [1, 1]"] ;
420 -> 426 ;
427 [label="gini = 0.0\nsamples = 1\nvalue = [1, 0]"] ;
426 -> 427 ;
428 [label="gini = 0.0\nsamples = 1\nvalue = [0, 1]"] ;
426 -> 428 ;
429 [label="Tenure <= 8.5\ngini = 0.0487\nsamples = 40\nvalue = [39, 1]"] ;
419 -> 429 ;
430 [label="gini = 0.0\nsamples = 32\nvalue = [32, 0]"] ;
429 -> 430 ;
431 [label="Geography_France <= 0.5\ngini = 0.2188\nsamples = 8\nvalue = [7, 1]"] ;
429 -> 431 ;
432 [label="gini = 0.0\nsamples = 1\nvalue = [0, 1]"] ;
431 -> 432 ;
433 [label="gini = 0.0\nsamples = 7\nvalue = [7, 0]"] ;
431 -> 433 ;
434 [label="EstimatedSalary <= 68115.25\ngini = 0.2604\nsamples = 26\nvalue = [22, 4]"] ;
414 -> 434 ;
435 [label="gini = 0.0\nsamples = 1\nvalue = [0, 1]"] ;
434 -> 435 ;
436 [label="CreditScore <= 755.5\ngini = 0.2112\nsamples = 25\nvalue = [22, 3]"] ;
434 -> 436 ;
437 [label="gini = 0.0\nsamples = 14\nvalue = [14, 0]"] ;
436 -> 437 ;
438 [label="Balance <= 116672.0156\ngini = 0.3967\nsamples = 11\nvalue = [8, 3]"] ;
436 -> 438 ;
439 [label="gini = 0.0\nsamples = 5\nvalue = [5, 0]"] ;
438 -> 439 ;
440 [label="CreditScore <= 768.0\ngini = 0.5\nsamples = 6\nvalue = [3, 3]"] ;
438 -> 440 ;
441 [label="gini = 0.0\nsamples = 2\nvalue = [0, 2]"] ;
440 -> 441 ;
442 [label="Tenure <= 1.5\ngini = 0.375\nsamples = 4\nvalue = [3, 1]"] ;
440 -> 442 ;
443 [label="gini = 0.0\nsamples = 1\nvalue = [0, 1]"] ;
442 -> 443 ;
444 [label="gini = 0.0\nsamples = 3\nvalue = [3, 0]"] ;
442 -> 444 ;
445 [label="Gender_Female <= 0.5\ngini = 0.4592\nsamples = 14\nvalue = [9, 5]"] ;
283 -> 445 ;
446 [label="gini = 0.0\nsamples = 6\nvalue = [6, 0]"] ;
445 -> 446 ;
447 [label="Geography_France <= 0.5\ngini = 0.4688\nsamples = 8\nvalue = [3, 5]"] ;
445 -> 447 ;
448 [label="Age <= 27.5\ngini = 0.375\nsamples = 4\nvalue = [3, 1]"] ;
447 -> 448 ;
449 [label="gini = 0.0\nsamples = 1\nvalue = [0, 1]"] ;
448 -> 449 ;
450 [label="gini = 0.0\nsamples = 3\nvalue = [3, 0]"] ;
448 -> 450 ;
451 [label="gini = 0.0\nsamples = 4\nvalue = [0, 4]"] ;
447 -> 451 ;
452 [label="EstimatedSalary <= 162403.2188\ngini = 0.086\nsamples = 622\nvalue = [594, 28]"] ;
282 -> 452 ;
453 [label="Gender_Female <= 0.5\ngini = 0.0676\nsamples = 514\nvalue = [496, 18]"] ;
452 -> 453 ;
454 [label="Balance <= 123283.2891\ngini = 0.0346\nsamples = 284\nvalue = [279, 5]"] ;
453 -> 454 ;
455 [label="Balance <= 123078.5\ngini = 0.0653\nsamples = 148\nvalue = [143, 5]"] ;
454 -> 455 ;
456 [label="Balance <= 110360.7344\ngini = 0.0529\nsamples = 147\nvalue = [143, 4]"] ;
455 -> 456 ;
457 [label="gini = 0.0\nsamples = 101\nvalue = [101, 0]"] ;
456 -> 457 ;
458 [label="Balance <= 110784.8438\ngini = 0.1588\nsamples = 46\nvalue = [42, 4]"] ;
456 -> 458 ;
459 [label="gini = 0.0\nsamples = 1\nvalue = [0, 1]"] ;
458 -> 459 ;
460 [label="EstimatedSalary <= 23454.1348\ngini = 0.1244\nsamples = 45\nvalue = [42, 3]"] ;
458 -> 460 ;
461 [label="EstimatedSalary <= 16599.4141\ngini = 0.375\nsamples = 4\nvalue = [3, 1]"] ;
460 -> 461 ;
462 [label="gini = 0.0\nsamples = 3\nvalue = [3, 0]"] ;
461 -> 462 ;
463 [label="gini = 0.0\nsamples = 1\nvalue = [0, 1]"] ;
461 -> 463 ;
464 [label="Tenure <= 2.5\ngini = 0.0928\nsamples = 41\nvalue = [39, 2]"] ;
460 -> 464 ;
465 [label="Tenure <= 1.5\ngini = 0.2778\nsamples = 12\nvalue = [10, 2]"] ;
464 -> 465 ;
466 [label="gini = 0.0\nsamples = 9\nvalue = [9, 0]"] ;
465 -> 466 ;
467 [label="Age <= 24.5\ngini = 0.4444\nsamples = 3\nvalue = [1, 2]"] ;
465 -> 467 ;
468 [label="gini = 0.0\nsamples = 1\nvalue = [1, 0]"] ;
467 -> 468 ;
469 [label="gini = 0.0\nsamples = 2\nvalue = [0, 2]"] ;
467 -> 469 ;
470 [label="gini = 0.0\nsamples = 29\nvalue = [29, 0]"] ;
464 -> 470 ;
471 [label="gini = 0.0\nsamples = 1\nvalue = [0, 1]"] ;
455 -> 471 ;
472 [label="gini = 0.0\nsamples = 136\nvalue = [136, 0]"] ;
454 -> 472 ;
473 [label="EstimatedSalary <= 5879.7646\ngini = 0.1067\nsamples = 230\nvalue = [217, 13]"] ;
453 -> 473 ;
474 [label="Tenure <= 5.5\ngini = 0.4444\nsamples = 6\nvalue = [4, 2]"] ;
473 -> 474 ;
475 [label="CreditScore <= 740.5\ngini = 0.4444\nsamples = 3\nvalue = [1, 2]"] ;
474 -> 475 ;
476 [label="gini = 0.0\nsamples = 2\nvalue = [0, 2]"] ;
475 -> 476 ;
477 [label="gini = 0.0\nsamples = 1\nvalue = [1, 0]"] ;
475 -> 477 ;
478 [label="gini = 0.0\nsamples = 3\nvalue = [3, 0]"] ;
474 -> 478 ;
479 [label="Balance <= 127388.5312\ngini = 0.0934\nsamples = 224\nvalue = [213, 11]"] ;
473 -> 479 ;
480 [label="Tenure <= 0.5\ngini = 0.0288\nsamples = 137\nvalue = [135, 2]"] ;
479 -> 480 ;
481 [label="Balance <= 93269.1328\ngini = 0.32\nsamples = 5\nvalue = [4, 1]"] ;
480 -> 481 ;
482 [label="gini = 0.0\nsamples = 1\nvalue = [0, 1]"] ;
481 -> 482 ;
483 [label="gini = 0.0\nsamples = 4\nvalue = [4, 0]"] ;
481 -> 483 ;
484 [label="EstimatedSalary <= 136188.5938\ngini = 0.015\nsamples = 132\nvalue = [131, 1]"] ;
480 -> 484 ;
485 [label="gini = 0.0\nsamples = 112\nvalue = [112, 0]"] ;
484 -> 485 ;
486 [label="EstimatedSalary <= 138521.875\ngini = 0.095\nsamples = 20\nvalue = [19, 1]"] ;
484 -> 486 ;
487 [label="gini = 0.0\nsamples = 1\nvalue = [0, 1]"] ;
486 -> 487 ;
488 [label="gini = 0.0\nsamples = 19\nvalue = [19, 0]"] ;
486 -> 488 ;
489 [label="Balance <= 127654.5469\ngini = 0.1855\nsamples = 87\nvalue = [78, 9]"] ;
479 -> 489 ;
490 [label="gini = 0.0\nsamples = 1\nvalue = [0, 1]"] ;
489 -> 490 ;
491 [label="Tenure <= 9.5\ngini = 0.1687\nsamples = 86\nvalue = [78, 8]"] ;
489 -> 491 ;
492 [label="HasCrCard <= 0.5\ngini = 0.1372\nsamples = 81\nvalue = [75, 6]"] ;
491 -> 492 ;
493 [label="gini = 0.0\nsamples = 30\nvalue = [30, 0]"] ;
492 -> 493 ;
494 [label="Balance <= 134208.8125\ngini = 0.2076\nsamples = 51\nvalue = [45, 6]"] ;
492 -> 494 ;
495 [label="Balance <= 133909.2812\ngini = 0.4444\nsamples = 9\nvalue = [6, 3]"] ;
494 -> 495 ;
496 [label="Age <= 35.5\ngini = 0.375\nsamples = 8\nvalue = [6, 2]"] ;
495 -> 496 ;
497 [label="gini = 0.0\nsamples = 5\nvalue = [5, 0]"] ;
496 -> 497 ;
498 [label="EstimatedSalary <= 34269.5781\ngini = 0.4444\nsamples = 3\nvalue = [1, 2]"] ;
496 -> 498 ;
499 [label="gini = 0.0\nsamples = 1\nvalue = [1, 0]"] ;
498 -> 499 ;
500 [label="gini = 0.0\nsamples = 2\nvalue = [0, 2]"] ;
498 -> 500 ;
501 [label="gini = 0.0\nsamples = 1\nvalue = [0, 1]"] ;
495 -> 501 ;
502 [label="CreditScore <= 582.5\ngini = 0.1327\nsamples = 42\nvalue = [39, 3]"] ;
494 -> 502 ;
503 [label="Balance <= 151316.0938\ngini = 0.3457\nsamples = 9\nvalue = [7, 2]"] ;
502 -> 503 ;
504 [label="gini = 0.0\nsamples = 6\nvalue = [6, 0]"] ;
503 -> 504 ;
505 [label="Balance <= 166729.75\ngini = 0.4444\nsamples = 3\nvalue = [1, 2]"] ;
503 -> 505 ;
506 [label="gini = 0.0\nsamples = 2\nvalue = [0, 2]"] ;
505 -> 506 ;
507 [label="gini = 0.0\nsamples = 1\nvalue = [1, 0]"] ;
505 -> 507 ;
508 [label="Age <= 37.5\ngini = 0.0588\nsamples = 33\nvalue = [32, 1]"] ;
502 -> 508 ;
509 [label="gini = 0.0\nsamples = 26\nvalue = [26, 0]"] ;
508 -> 509 ;
510 [label="CreditScore <= 675.5\ngini = 0.2449\nsamples = 7\nvalue = [6, 1]"] ;
508 -> 510 ;
511 [label="CreditScore <= 631.0\ngini = 0.5\nsamples = 2\nvalue = [1, 1]"] ;
510 -> 511 ;
512 [label="gini = 0.0\nsamples = 1\nvalue = [1, 0]"] ;
511 -> 512 ;
513 [label="gini = 0.0\nsamples = 1\nvalue = [0, 1]"] ;
511 -> 513 ;
514 [label="gini = 0.0\nsamples = 5\nvalue = [5, 0]"] ;
510 -> 514 ;
515 [label="EstimatedSalary <= 52430.7852\ngini = 0.48\nsamples = 5\nvalue = [3, 2]"] ;
491 -> 515 ;
516 [label="gini = 0.0\nsamples = 3\nvalue = [3, 0]"] ;
515 -> 516 ;
517 [label="gini = 0.0\nsamples = 2\nvalue = [0, 2]"] ;
515 -> 517 ;
518 [label="EstimatedSalary <= 164239.6875\ngini = 0.168\nsamples = 108\nvalue = [98, 10]"] ;
452 -> 518 ;
519 [label="Balance <= 142218.0938\ngini = 0.5\nsamples = 6\nvalue = [3, 3]"] ;
518 -> 519 ;
520 [label="Tenure <= 2.5\ngini = 0.375\nsamples = 4\nvalue = [1, 3]"] ;
519 -> 520 ;
521 [label="gini = 0.0\nsamples = 1\nvalue = [1, 0]"] ;
520 -> 521 ;
522 [label="gini = 0.0\nsamples = 3\nvalue = [0, 3]"] ;
520 -> 522 ;
523 [label="gini = 0.0\nsamples = 2\nvalue = [2, 0]"] ;
519 -> 523 ;
524 [label="CreditScore <= 606.5\ngini = 0.1278\nsamples = 102\nvalue = [95, 7]"] ;
518 -> 524 ;
525 [label="Balance <= 155463.6406\ngini = 0.2706\nsamples = 31\nvalue = [26, 5]"] ;
524 -> 525 ;
526 [label="Balance <= 81697.4375\ngini = 0.1975\nsamples = 27\nvalue = [24, 3]"] ;
525 -> 526 ;
527 [label="CreditScore <= 486.5\ngini = 0.5\nsamples = 2\nvalue = [1, 1]"] ;
526 -> 527 ;
528 [label="gini = 0.0\nsamples = 1\nvalue = [1, 0]"] ;
527 -> 528 ;
529 [label="gini = 0.0\nsamples = 1\nvalue = [0, 1]"] ;
527 -> 529 ;
530 [label="Geography_France <= 0.5\ngini = 0.1472\nsamples = 25\nvalue = [23, 2]"] ;
526 -> 530 ;
531 [label="Tenure <= 6.5\ngini = 0.375\nsamples = 8\nvalue = [6, 2]"] ;
530 -> 531 ;
532 [label="Balance <= 110026.8281\ngini = 0.5\nsamples = 4\nvalue = [2, 2]"] ;
531 -> 532 ;
533 [label="gini = 0.0\nsamples = 2\nvalue = [2, 0]"] ;
532 -> 533 ;
534 [label="gini = 0.0\nsamples = 2\nvalue = [0, 2]"] ;
532 -> 534 ;
535 [label="gini = 0.0\nsamples = 4\nvalue = [4, 0]"] ;
531 -> 535 ;
536 [label="gini = 0.0\nsamples = 17\nvalue = [17, 0]"] ;
530 -> 536 ;
537 [label="Geography_France <= 0.5\ngini = 0.5\nsamples = 4\nvalue = [2, 2]"] ;
525 -> 537 ;
538 [label="gini = 0.0\nsamples = 1\nvalue = [1, 0]"] ;
537 -> 538 ;
539 [label="CreditScore <= 590.5\ngini = 0.4444\nsamples = 3\nvalue = [1, 2]"] ;
537 -> 539 ;
540 [label="gini = 0.0\nsamples = 1\nvalue = [1, 0]"] ;
539 -> 540 ;
541 [label="gini = 0.0\nsamples = 2\nvalue = [0, 2]"] ;
539 -> 541 ;
542 [label="Age <= 36.5\ngini = 0.0548\nsamples = 71\nvalue = [69, 2]"] ;
524 -> 542 ;
543 [label="gini = 0.0\nsamples = 56\nvalue = [56, 0]"] ;
542 -> 543 ;
544 [label="Balance <= 93430.2891\ngini = 0.2311\nsamples = 15\nvalue = [13, 2]"] ;
542 -> 544 ;
545 [label="Age <= 38.0\ngini = 0.4444\nsamples = 3\nvalue = [1, 2]"] ;
544 -> 545 ;
546 [label="gini = 0.0\nsamples = 2\nvalue = [0, 2]"] ;
545 -> 546 ;
547 [label="gini = 0.0\nsamples = 1\nvalue = [1, 0]"] ;
545 -> 547 ;
548 [label="gini = 0.0\nsamples = 12\nvalue = [12, 0]"] ;
544 -> 548 ;
549 [label="Balance <= 95175.1094\ngini = 0.296\nsamples = 227\nvalue = [186, 41]"] ;
281 -> 549 ;
550 [label="Balance <= 93395.7344\ngini = 0.48\nsamples = 30\nvalue = [18, 12]"] ;
549 -> 550 ;
551 [label="EstimatedSalary <= 188639.6875\ngini = 0.4444\nsamples = 27\nvalue = [18, 9]"] ;
550 -> 551 ;
552 [label="Balance <= 80414.1406\ngini = 0.4032\nsamples = 25\nvalue = [18, 7]"] ;
551 -> 552 ;
553 [label="EstimatedSalary <= 146233.375\ngini = 0.48\nsamples = 5\nvalue = [2, 3]"] ;
552 -> 553 ;
554 [label="gini = 0.0\nsamples = 3\nvalue = [0, 3]"] ;
553 -> 554 ;
555 [label="gini = 0.0\nsamples = 2\nvalue = [2, 0]"] ;
553 -> 555 ;
556 [label="HasCrCard <= 0.5\ngini = 0.32\nsamples = 20\nvalue = [16, 4]"] ;
552 -> 556 ;
557 [label="EstimatedSalary <= 135997.1875\ngini = 0.5\nsamples = 6\nvalue = [3, 3]"] ;
556 -> 557 ;
558 [label="gini = 0.0\nsamples = 3\nvalue = [3, 0]"] ;
557 -> 558 ;
559 [label="gini = 0.0\nsamples = 3\nvalue = [0, 3]"] ;
557 -> 559 ;
560 [label="Geography_France <= 0.5\ngini = 0.1327\nsamples = 14\nvalue = [13, 1]"] ;
556 -> 560 ;
561 [label="EstimatedSalary <= 88487.2031\ngini = 0.32\nsamples = 5\nvalue = [4, 1]"] ;
560 -> 561 ;
562 [label="Balance <= 87729.9922\ngini = 0.5\nsamples = 2\nvalue = [1, 1]"] ;
561 -> 562 ;
563 [label="gini = 0.0\nsamples = 1\nvalue = [1, 0]"] ;
562 -> 563 ;
564 [label="gini = 0.0\nsamples = 1\nvalue = [0, 1]"] ;
562 -> 564 ;
565 [label="gini = 0.0\nsamples = 3\nvalue = [3, 0]"] ;
561 -> 565 ;
566 [label="gini = 0.0\nsamples = 9\nvalue = [9, 0]"] ;
560 -> 566 ;
567 [label="gini = 0.0\nsamples = 2\nvalue = [0, 2]"] ;
551 -> 567 ;
568 [label="gini = 0.0\nsamples = 3\nvalue = [0, 3]"] ;
550 -> 568 ;
569 [label="Balance <= 136913.0\ngini = 0.2511\nsamples = 197\nvalue = [168, 29]"] ;
549 -> 569 ;
570 [label="CreditScore <= 392.0\ngini = 0.144\nsamples = 128\nvalue = [118, 10]"] ;
569 -> 570 ;
571 [label="gini = 0.0\nsamples = 1\nvalue = [0, 1]"] ;
570 -> 571 ;
572 [label="IsActiveMember <= 0.5\ngini = 0.1317\nsamples = 127\nvalue = [118, 9]"] ;
570 -> 572 ;
573 [label="Tenure <= 6.5\ngini = 0.2449\nsamples = 56\nvalue = [48, 8]"] ;
572 -> 573 ;
574 [label="Geography_France <= 0.5\ngini = 0.3343\nsamples = 33\nvalue = [26, 7]"] ;
573 -> 574 ;
575 [label="gini = 0.0\nsamples = 10\nvalue = [10, 0]"] ;
574 -> 575 ;
576 [label="CreditScore <= 622.5\ngini = 0.4234\nsamples = 23\nvalue = [16, 7]"] ;
574 -> 576 ;
577 [label="Balance <= 106424.125\ngini = 0.48\nsamples = 5\nvalue = [2, 3]"] ;
576 -> 577 ;
578 [label="gini = 0.0\nsamples = 2\nvalue = [2, 0]"] ;
577 -> 578 ;
579 [label="gini = 0.0\nsamples = 3\nvalue = [0, 3]"] ;
577 -> 579 ;
580 [label="Balance <= 107989.0156\ngini = 0.3457\nsamples = 18\nvalue = [14, 4]"] ;
576 -> 580 ;
581 [label="Balance <= 103242.9844\ngini = 0.5\nsamples = 8\nvalue = [4, 4]"] ;
580 -> 581 ;
582 [label="CreditScore <= 774.0\ngini = 0.32\nsamples = 5\nvalue = [4, 1]"] ;
581 -> 582 ;
583 [label="gini = 0.0\nsamples = 4\nvalue = [4, 0]"] ;
582 -> 583 ;
584 [label="gini = 0.0\nsamples = 1\nvalue = [0, 1]"] ;
582 -> 584 ;
585 [label="gini = 0.0\nsamples = 3\nvalue = [0, 3]"] ;
581 -> 585 ;
586 [label="gini = 0.0\nsamples = 10\nvalue = [10, 0]"] ;
580 -> 586 ;
587 [label="Tenure <= 9.5\ngini = 0.0832\nsamples = 23\nvalue = [22, 1]"] ;
573 -> 587 ;
588 [label="gini = 0.0\nsamples = 20\nvalue = [20, 0]"] ;
587 -> 588 ;
589 [label="Gender_Female <= 0.5\ngini = 0.4444\nsamples = 3\nvalue = [2, 1]"] ;
587 -> 589 ;
590 [label="gini = 0.0\nsamples = 2\nvalue = [2, 0]"] ;
589 -> 590 ;
591 [label="gini = 0.0\nsamples = 1\nvalue = [0, 1]"] ;
589 -> 591 ;
592 [label="Tenure <= 0.5\ngini = 0.0278\nsamples = 71\nvalue = [70, 1]"] ;
572 -> 592 ;
593 [label="EstimatedSalary <= 60327.5352\ngini = 0.375\nsamples = 4\nvalue = [3, 1]"] ;
592 -> 593 ;
594 [label="gini = 0.0\nsamples = 1\nvalue = [0, 1]"] ;
593 -> 594 ;
595 [label="gini = 0.0\nsamples = 3\nvalue = [3, 0]"] ;
593 -> 595 ;
596 [label="gini = 0.0\nsamples = 67\nvalue = [67, 0]"] ;
592 -> 596 ;
597 [label="Balance <= 137962.4375\ngini = 0.3991\nsamples = 69\nvalue = [50, 19]"] ;
569 -> 597 ;
598 [label="gini = 0.0\nsamples = 2\nvalue = [0, 2]"] ;
597 -> 598 ;
599 [label="CreditScore <= 553.0\ngini = 0.3787\nsamples = 67\nvalue = [50, 17]"] ;
597 -> 599 ;
600 [label="Tenure <= 7.5\ngini = 0.5\nsamples = 14\nvalue = [7, 7]"] ;
599 -> 600 ;
601 [label="Tenure <= 2.5\ngini = 0.4628\nsamples = 11\nvalue = [7, 4]"] ;
600 -> 601 ;
602 [label="CreditScore <= 530.5\ngini = 0.375\nsamples = 4\nvalue = [1, 3]"] ;
601 -> 602 ;
603 [label="Balance <= 152343.375\ngini = 0.5\nsamples = 2\nvalue = [1, 1]"] ;
602 -> 603 ;
604 [label="gini = 0.0\nsamples = 1\nvalue = [0, 1]"] ;
603 -> 604 ;
605 [label="gini = 0.0\nsamples = 1\nvalue = [1, 0]"] ;
603 -> 605 ;
606 [label="gini = 0.0\nsamples = 2\nvalue = [0, 2]"] ;
602 -> 606 ;
607 [label="Tenure <= 6.5\ngini = 0.2449\nsamples = 7\nvalue = [6, 1]"] ;
601 -> 607 ;
608 [label="gini = 0.0\nsamples = 5\nvalue = [5, 0]"] ;
607 -> 608 ;
609 [label="EstimatedSalary <= 128293.5625\ngini = 0.5\nsamples = 2\nvalue = [1, 1]"] ;
607 -> 609 ;
610 [label="gini = 0.0\nsamples = 1\nvalue = [1, 0]"] ;
609 -> 610 ;
611 [label="gini = 0.0\nsamples = 1\nvalue = [0, 1]"] ;
609 -> 611 ;
612 [label="gini = 0.0\nsamples = 3\nvalue = [0, 3]"] ;
600 -> 612 ;
613 [label="EstimatedSalary <= 34139.1719\ngini = 0.3062\nsamples = 53\nvalue = [43, 10]"] ;
599 -> 613 ;
614 [label="gini = 0.0\nsamples = 12\nvalue = [12, 0]"] ;
613 -> 614 ;
615 [label="EstimatedSalary <= 36745.0352\ngini = 0.3688\nsamples = 41\nvalue = [31, 10]"] ;
613 -> 615 ;
616 [label="gini = 0.0\nsamples = 1\nvalue = [0, 1]"] ;
615 -> 616 ;
617 [label="Balance <= 145346.1406\ngini = 0.3488\nsamples = 40\nvalue = [31, 9]"] ;
615 -> 617 ;
618 [label="CreditScore <= 613.0\ngini = 0.48\nsamples = 15\nvalue = [9, 6]"] ;
617 -> 618 ;
619 [label="gini = 0.0\nsamples = 5\nvalue = [5, 0]"] ;
618 -> 619 ;
620 [label="EstimatedSalary <= 70071.2031\ngini = 0.48\nsamples = 10\nvalue = [4, 6]"] ;
618 -> 620 ;
621 [label="gini = 0.0\nsamples = 2\nvalue = [2, 0]"] ;
620 -> 621 ;
622 [label="CreditScore <= 771.0\ngini = 0.375\nsamples = 8\nvalue = [2, 6]"] ;
620 -> 622 ;
623 [label="EstimatedSalary <= 186231.5625\ngini = 0.2449\nsamples = 7\nvalue = [1, 6]"] ;
622 -> 623 ;
624 [label="gini = 0.0\nsamples = 5\nvalue = [0, 5]"] ;
623 -> 624 ;
625 [label="Tenure <= 3.0\ngini = 0.5\nsamples = 2\nvalue = [1, 1]"] ;
623 -> 625 ;
626 [label="gini = 0.0\nsamples = 1\nvalue = [0, 1]"] ;
625 -> 626 ;
627 [label="gini = 0.0\nsamples = 1\nvalue = [1, 0]"] ;
625 -> 627 ;
628 [label="gini = 0.0\nsamples = 1\nvalue = [1, 0]"] ;
622 -> 628 ;
629 [label="Balance <= 169528.375\ngini = 0.2112\nsamples = 25\nvalue = [22, 3]"] ;
617 -> 629 ;
630 [label="EstimatedSalary <= 47174.4336\ngini = 0.0868\nsamples = 22\nvalue = [21, 1]"] ;
629 -> 630 ;
631 [label="Tenure <= 4.5\ngini = 0.4444\nsamples = 3\nvalue = [2, 1]"] ;
630 -> 631 ;
632 [label="gini = 0.0\nsamples = 1\nvalue = [0, 1]"] ;
631 -> 632 ;
633 [label="gini = 0.0\nsamples = 2\nvalue = [2, 0]"] ;
631 -> 633 ;
634 [label="gini = 0.0\nsamples = 19\nvalue = [19, 0]"] ;
630 -> 634 ;
635 [label="Tenure <= 1.5\ngini = 0.4444\nsamples = 3\nvalue = [1, 2]"] ;
629 -> 635 ;
636 [label="gini = 0.0\nsamples = 1\nvalue = [1, 0]"] ;
635 -> 636 ;
637 [label="gini = 0.0\nsamples = 2\nvalue = [0, 2]"] ;
635 -> 637 ;
638 [label="Gender_Female <= 0.5\ngini = 0.4481\nsamples = 59\nvalue = [39, 20]"] ;
280 -> 638 ;
639 [label="Age <= 41.5\ngini = 0.32\nsamples = 35\nvalue = [28, 7]"] ;
638 -> 639 ;
640 [label="Balance <= 178664.0781\ngini = 0.18\nsamples = 30\nvalue = [27, 3]"] ;
639 -> 640 ;
641 [label="IsActiveMember <= 0.5\ngini = 0.5\nsamples = 2\nvalue = [1, 1]"] ;
640 -> 641 ;
642 [label="gini = 0.0\nsamples = 1\nvalue = [0, 1]"] ;
641 -> 642 ;
643 [label="gini = 0.0\nsamples = 1\nvalue = [1, 0]"] ;
641 -> 643 ;
644 [label="Tenure <= 9.5\ngini = 0.1327\nsamples = 28\nvalue = [26, 2]"] ;
640 -> 644 ;
645 [label="CreditScore <= 487.0\ngini = 0.074\nsamples = 26\nvalue = [25, 1]"] ;
644 -> 645 ;
646 [label="Tenure <= 7.5\ngini = 0.5\nsamples = 2\nvalue = [1, 1]"] ;
645 -> 646 ;
647 [label="gini = 0.0\nsamples = 1\nvalue = [0, 1]"] ;
646 -> 647 ;
648 [label="gini = 0.0\nsamples = 1\nvalue = [1, 0]"] ;
646 -> 648 ;
649 [label="gini = 0.0\nsamples = 24\nvalue = [24, 0]"] ;
645 -> 649 ;
650 [label="HasCrCard <= 0.5\ngini = 0.5\nsamples = 2\nvalue = [1, 1]"] ;
644 -> 650 ;
651 [label="gini = 0.0\nsamples = 1\nvalue = [0, 1]"] ;
650 -> 651 ;
652 [label="gini = 0.0\nsamples = 1\nvalue = [1, 0]"] ;
650 -> 652 ;
653 [label="CreditScore <= 547.0\ngini = 0.32\nsamples = 5\nvalue = [1, 4]"] ;
639 -> 653 ;
654 [label="gini = 0.0\nsamples = 1\nvalue = [1, 0]"] ;
653 -> 654 ;
655 [label="gini = 0.0\nsamples = 4\nvalue = [0, 4]"] ;
653 -> 655 ;
656 [label="EstimatedSalary <= 133018.9062\ngini = 0.4965\nsamples = 24\nvalue = [11, 13]"] ;
638 -> 656 ;
657 [label="Tenure <= 1.5\ngini = 0.495\nsamples = 20\nvalue = [11, 9]"] ;
656 -> 657 ;
658 [label="gini = 0.0\nsamples = 4\nvalue = [4, 0]"] ;
657 -> 658 ;
659 [label="Tenure <= 7.5\ngini = 0.4922\nsamples = 16\nvalue = [7, 9]"] ;
657 -> 659 ;
660 [label="Age <= 37.0\ngini = 0.42\nsamples = 10\nvalue = [3, 7]"] ;
659 -> 660 ;
661 [label="gini = 0.0\nsamples = 5\nvalue = [0, 5]"] ;
660 -> 661 ;
662 [label="IsActiveMember <= 0.5\ngini = 0.48\nsamples = 5\nvalue = [3, 2]"] ;
660 -> 662 ;
663 [label="gini = 0.0\nsamples = 2\nvalue = [0, 2]"] ;
662 -> 663 ;
664 [label="gini = 0.0\nsamples = 3\nvalue = [3, 0]"] ;
662 -> 664 ;
665 [label="CreditScore <= 784.0\ngini = 0.4444\nsamples = 6\nvalue = [4, 2]"] ;
659 -> 665 ;
666 [label="Age <= 31.5\ngini = 0.32\nsamples = 5\nvalue = [4, 1]"] ;
665 -> 666 ;
667 [label="gini = 0.0\nsamples = 1\nvalue = [0, 1]"] ;
666 -> 667 ;
668 [label="gini = 0.0\nsamples = 4\nvalue = [4, 0]"] ;
666 -> 668 ;
669 [label="gini = 0.0\nsamples = 1\nvalue = [0, 1]"] ;
665 -> 669 ;
670 [label="gini = 0.0\nsamples = 4\nvalue = [0, 4]"] ;
656 -> 670 ;
671 [label="Age <= 33.5\ngini = 0.4013\nsamples = 655\nvalue = [473, 182]"] ;
3 -> 671 ;
672 [label="Balance <= 99795.2344\ngini = 0.2785\nsamples = 293\nvalue = [244, 49]"] ;
671 -> 672 ;
673 [label="Age <= 20.0\ngini = 0.0666\nsamples = 58\nvalue = [56, 2]"] ;
672 -> 673 ;
674 [label="Balance <= 79691.6562\ngini = 0.5\nsamples = 2\nvalue = [1, 1]"] ;
673 -> 674 ;
675 [label="gini = 0.0\nsamples = 1\nvalue = [1, 0]"] ;
674 -> 675 ;
676 [label="gini = 0.0\nsamples = 1\nvalue = [0, 1]"] ;
674 -> 676 ;
677 [label="EstimatedSalary <= 182641.9062\ngini = 0.0351\nsamples = 56\nvalue = [55, 1]"] ;
673 -> 677 ;
678 [label="gini = 0.0\nsamples = 51\nvalue = [51, 0]"] ;
677 -> 678 ;
679 [label="EstimatedSalary <= 187490.125\ngini = 0.32\nsamples = 5\nvalue = [4, 1]"] ;
677 -> 679 ;
680 [label="gini = 0.0\nsamples = 1\nvalue = [0, 1]"] ;
679 -> 680 ;
681 [label="gini = 0.0\nsamples = 4\nvalue = [4, 0]"] ;
679 -> 681 ;
682 [label="IsActiveMember <= 0.5\ngini = 0.32\nsamples = 235\nvalue = [188, 47]"] ;
672 -> 682 ;
683 [label="Balance <= 148011.8438\ngini = 0.4\nsamples = 123\nvalue = [89, 34]"] ;
682 -> 683 ;
684 [label="Balance <= 101048.5625\ngini = 0.4421\nsamples = 97\nvalue = [65, 32]"] ;
683 -> 684 ;
685 [label="gini = 0.0\nsamples = 2\nvalue = [0, 2]"] ;
684 -> 685 ;
686 [label="CreditScore <= 702.5\ngini = 0.4321\nsamples = 95\nvalue = [65, 30]"] ;
684 -> 686 ;
687 [label="Tenure <= 1.5\ngini = 0.375\nsamples = 64\nvalue = [48, 16]"] ;
686 -> 687 ;
688 [label="EstimatedSalary <= 113907.9375\ngini = 0.5\nsamples = 12\nvalue = [6, 6]"] ;
687 -> 688 ;
689 [label="Age <= 31.5\ngini = 0.4444\nsamples = 9\nvalue = [3, 6]"] ;
688 -> 689 ;
690 [label="gini = 0.0\nsamples = 5\nvalue = [0, 5]"] ;
689 -> 690 ;
691 [label="Balance <= 136997.4688\ngini = 0.375\nsamples = 4\nvalue = [3, 1]"] ;
689 -> 691 ;
692 [label="gini = 0.0\nsamples = 3\nvalue = [3, 0]"] ;
691 -> 692 ;
693 [label="gini = 0.0\nsamples = 1\nvalue = [0, 1]"] ;
691 -> 693 ;
694 [label="gini = 0.0\nsamples = 3\nvalue = [3, 0]"] ;
688 -> 694 ;
695 [label="Tenure <= 5.5\ngini = 0.3107\nsamples = 52\nvalue = [42, 10]"] ;
687 -> 695 ;
696 [label="EstimatedSalary <= 59946.6875\ngini = 0.0868\nsamples = 22\nvalue = [21, 1]"] ;
695 -> 696 ;
697 [label="Tenure <= 3.5\ngini = 0.375\nsamples = 4\nvalue = [3, 1]"] ;
696 -> 697 ;
698 [label="gini = 0.0\nsamples = 1\nvalue = [0, 1]"] ;
697 -> 698 ;
699 [label="gini = 0.0\nsamples = 3\nvalue = [3, 0]"] ;
697 -> 699 ;
700 [label="gini = 0.0\nsamples = 18\nvalue = [18, 0]"] ;
696 -> 700 ;
701 [label="HasCrCard <= 0.5\ngini = 0.42\nsamples = 30\nvalue = [21, 9]"] ;
695 -> 701 ;
702 [label="gini = 0.0\nsamples = 6\nvalue = [6, 0]"] ;
701 -> 702 ;
703 [label="CreditScore <= 666.0\ngini = 0.4688\nsamples = 24\nvalue = [15, 9]"] ;
701 -> 703 ;
704 [label="EstimatedSalary <= 80098.0703\ngini = 0.4986\nsamples = 19\nvalue = [10, 9]"] ;
703 -> 704 ;
705 [label="Balance <= 131769.4688\ngini = 0.4082\nsamples = 7\nvalue = [2, 5]"] ;
704 -> 705 ;
706 [label="Tenure <= 9.0\ngini = 0.2778\nsamples = 6\nvalue = [1, 5]"] ;
705 -> 706 ;
707 [label="gini = 0.0\nsamples = 4\nvalue = [0, 4]"] ;
706 -> 707 ;
708 [label="Balance <= 120003.0469\ngini = 0.5\nsamples = 2\nvalue = [1, 1]"] ;
706 -> 708 ;
709 [label="gini = 0.0\nsamples = 1\nvalue = [1, 0]"] ;
708 -> 709 ;
710 [label="gini = 0.0\nsamples = 1\nvalue = [0, 1]"] ;
708 -> 710 ;
711 [label="gini = 0.0\nsamples = 1\nvalue = [1, 0]"] ;
705 -> 711 ;
712 [label="EstimatedSalary <= 173120.8438\ngini = 0.4444\nsamples = 12\nvalue = [8, 4]"] ;
704 -> 712 ;
713 [label="Balance <= 115249.9141\ngini = 0.32\nsamples = 10\nvalue = [8, 2]"] ;
712 -> 713 ;
714 [label="gini = 0.0\nsamples = 4\nvalue = [4, 0]"] ;
713 -> 714 ;
715 [label="Age <= 30.5\ngini = 0.4444\nsamples = 6\nvalue = [4, 2]"] ;
713 -> 715 ;
716 [label="gini = 0.0\nsamples = 1\nvalue = [0, 1]"] ;
715 -> 716 ;
717 [label="Balance <= 117833.0781\ngini = 0.32\nsamples = 5\nvalue = [4, 1]"] ;
715 -> 717 ;
718 [label="gini = 0.0\nsamples = 1\nvalue = [0, 1]"] ;
717 -> 718 ;
719 [label="gini = 0.0\nsamples = 4\nvalue = [4, 0]"] ;
717 -> 719 ;
720 [label="gini = 0.0\nsamples = 2\nvalue = [0, 2]"] ;
712 -> 720 ;
721 [label="gini = 0.0\nsamples = 5\nvalue = [5, 0]"] ;
703 -> 721 ;
722 [label="Age <= 29.5\ngini = 0.4953\nsamples = 31\nvalue = [17, 14]"] ;
686 -> 722 ;
723 [label="Tenure <= 2.5\ngini = 0.4753\nsamples = 18\nvalue = [7, 11]"] ;
722 -> 723 ;
724 [label="Balance <= 112010.5312\ngini = 0.375\nsamples = 4\nvalue = [3, 1]"] ;
723 -> 724 ;
725 [label="gini = 0.0\nsamples = 1\nvalue = [0, 1]"] ;
724 -> 725 ;
726 [label="gini = 0.0\nsamples = 3\nvalue = [3, 0]"] ;
724 -> 726 ;
727 [label="Tenure <= 6.0\ngini = 0.4082\nsamples = 14\nvalue = [4, 10]"] ;
723 -> 727 ;
728 [label="CreditScore <= 748.5\ngini = 0.2188\nsamples = 8\nvalue = [1, 7]"] ;
727 -> 728 ;
729 [label="Balance <= 130058.7344\ngini = 0.5\nsamples = 2\nvalue = [1, 1]"] ;
728 -> 729 ;
730 [label="gini = 0.0\nsamples = 1\nvalue = [1, 0]"] ;
729 -> 730 ;
731 [label="gini = 0.0\nsamples = 1\nvalue = [0, 1]"] ;
729 -> 731 ;
732 [label="gini = 0.0\nsamples = 6\nvalue = [0, 6]"] ;
728 -> 732 ;
733 [label="Age <= 25.0\ngini = 0.5\nsamples = 6\nvalue = [3, 3]"] ;
727 -> 733 ;
734 [label="gini = 0.0\nsamples = 2\nvalue = [0, 2]"] ;
733 -> 734 ;
735 [label="Tenure <= 8.5\ngini = 0.375\nsamples = 4\nvalue = [3, 1]"] ;
733 -> 735 ;
736 [label="gini = 0.0\nsamples = 3\nvalue = [3, 0]"] ;
735 -> 736 ;
737 [label="gini = 0.0\nsamples = 1\nvalue = [0, 1]"] ;
735 -> 737 ;
738 [label="Balance <= 124424.8438\ngini = 0.355\nsamples = 13\nvalue = [10, 3]"] ;
722 -> 738 ;
739 [label="Tenure <= 6.5\ngini = 0.4688\nsamples = 8\nvalue = [5, 3]"] ;
738 -> 739 ;
740 [label="Balance <= 122112.0781\ngini = 0.4082\nsamples = 7\nvalue = [5, 2]"] ;
739 -> 740 ;
741 [label="Balance <= 102290.4922\ngini = 0.2778\nsamples = 6\nvalue = [5, 1]"] ;
740 -> 741 ;
742 [label="Balance <= 101965.4688\ngini = 0.5\nsamples = 2\nvalue = [1, 1]"] ;
741 -> 742 ;
743 [label="gini = 0.0\nsamples = 1\nvalue = [1, 0]"] ;
742 -> 743 ;
744 [label="gini = 0.0\nsamples = 1\nvalue = [0, 1]"] ;
742 -> 744 ;
745 [label="gini = 0.0\nsamples = 4\nvalue = [4, 0]"] ;
741 -> 745 ;
746 [label="gini = 0.0\nsamples = 1\nvalue = [0, 1]"] ;
740 -> 746 ;
747 [label="gini = 0.0\nsamples = 1\nvalue = [0, 1]"] ;
739 -> 747 ;
748 [label="gini = 0.0\nsamples = 5\nvalue = [5, 0]"] ;
738 -> 748 ;
749 [label="CreditScore <= 773.5\ngini = 0.142\nsamples = 26\nvalue = [24, 2]"] ;
683 -> 749 ;
750 [label="gini = 0.0\nsamples = 20\nvalue = [20, 0]"] ;
749 -> 750 ;
751 [label="EstimatedSalary <= 60334.3984\ngini = 0.4444\nsamples = 6\nvalue = [4, 2]"] ;
749 -> 751 ;
752 [label="gini = 0.0\nsamples = 3\nvalue = [3, 0]"] ;
751 -> 752 ;
753 [label="Balance <= 149207.3438\ngini = 0.4444\nsamples = 3\nvalue = [1, 2]"] ;
751 -> 753 ;
754 [label="gini = 0.0\nsamples = 1\nvalue = [1, 0]"] ;
753 -> 754 ;
755 [label="gini = 0.0\nsamples = 2\nvalue = [0, 2]"] ;
753 -> 755 ;
756 [label="Balance <= 131108.4062\ngini = 0.2052\nsamples = 112\nvalue = [99, 13]"] ;
682 -> 756 ;
757 [label="CreditScore <= 823.0\ngini = 0.1207\nsamples = 62\nvalue = [58, 4]"] ;
756 -> 757 ;
758 [label="Tenure <= 9.5\ngini = 0.095\nsamples = 60\nvalue = [57, 3]"] ;
757 -> 758 ;
759 [label="CreditScore <= 521.0\ngini = 0.0666\nsamples = 58\nvalue = [56, 2]"] ;
758 -> 759 ;
760 [label="Tenure <= 3.5\ngini = 0.375\nsamples = 4\nvalue = [3, 1]"] ;
759 -> 760 ;
761 [label="gini = 0.0\nsamples = 1\nvalue = [0, 1]"] ;
760 -> 761 ;
762 [label="gini = 0.0\nsamples = 3\nvalue = [3, 0]"] ;
760 -> 762 ;
763 [label="Balance <= 106328.3359\ngini = 0.0364\nsamples = 54\nvalue = [53, 1]"] ;
759 -> 763 ;
764 [label="EstimatedSalary <= 80144.0938\ngini = 0.1975\nsamples = 9\nvalue = [8, 1]"] ;
763 -> 764 ;
765 [label="gini = 0.0\nsamples = 1\nvalue = [0, 1]"] ;
764 -> 765 ;
766 [label="gini = 0.0\nsamples = 8\nvalue = [8, 0]"] ;
764 -> 766 ;
767 [label="gini = 0.0\nsamples = 45\nvalue = [45, 0]"] ;
763 -> 767 ;
768 [label="Balance <= 110368.8516\ngini = 0.5\nsamples = 2\nvalue = [1, 1]"] ;
758 -> 768 ;
769 [label="gini = 0.0\nsamples = 1\nvalue = [0, 1]"] ;
768 -> 769 ;
770 [label="gini = 0.0\nsamples = 1\nvalue = [1, 0]"] ;
768 -> 770 ;
771 [label="EstimatedSalary <= 125940.7656\ngini = 0.5\nsamples = 2\nvalue = [1, 1]"] ;
757 -> 771 ;
772 [label="gini = 0.0\nsamples = 1\nvalue = [0, 1]"] ;
771 -> 772 ;
773 [label="gini = 0.0\nsamples = 1\nvalue = [1, 0]"] ;
771 -> 773 ;
774 [label="Balance <= 134440.625\ngini = 0.2952\nsamples = 50\nvalue = [41, 9]"] ;
756 -> 774 ;
775 [label="Age <= 27.5\ngini = 0.48\nsamples = 5\nvalue = [2, 3]"] ;
774 -> 775 ;
776 [label="gini = 0.0\nsamples = 2\nvalue = [2, 0]"] ;
775 -> 776 ;
777 [label="gini = 0.0\nsamples = 3\nvalue = [0, 3]"] ;
775 -> 777 ;
778 [label="EstimatedSalary <= 180910.25\ngini = 0.2311\nsamples = 45\nvalue = [39, 6]"] ;
774 -> 778 ;
779 [label="Tenure <= 3.5\ngini = 0.2014\nsamples = 44\nvalue = [39, 5]"] ;
778 -> 779 ;
780 [label="gini = 0.0\nsamples = 16\nvalue = [16, 0]"] ;
779 -> 780 ;
781 [label="CreditScore <= 613.0\ngini = 0.2934\nsamples = 28\nvalue = [23, 5]"] ;
779 -> 781 ;
782 [label="gini = 0.0\nsamples = 9\nvalue = [9, 0]"] ;
781 -> 782 ;
783 [label="CreditScore <= 625.0\ngini = 0.3878\nsamples = 19\nvalue = [14, 5]"] ;
781 -> 783 ;
784 [label="gini = 0.0\nsamples = 1\nvalue = [0, 1]"] ;
783 -> 784 ;
785 [label="Age <= 30.5\ngini = 0.3457\nsamples = 18\nvalue = [14, 4]"] ;
783 -> 785 ;
786 [label="Balance <= 155006.9062\ngini = 0.1653\nsamples = 11\nvalue = [10, 1]"] ;
785 -> 786 ;
787 [label="gini = 0.0\nsamples = 9\nvalue = [9, 0]"] ;
786 -> 787 ;
788 [label="HasCrCard <= 0.5\ngini = 0.5\nsamples = 2\nvalue = [1, 1]"] ;
786 -> 788 ;
789 [label="gini = 0.0\nsamples = 1\nvalue = [0, 1]"] ;
788 -> 789 ;
790 [label="gini = 0.0\nsamples = 1\nvalue = [1, 0]"] ;
788 -> 790 ;
791 [label="EstimatedSalary <= 84544.3281\ngini = 0.4898\nsamples = 7\nvalue = [4, 3]"] ;
785 -> 791 ;
792 [label="gini = 0.0\nsamples = 3\nvalue = [3, 0]"] ;
791 -> 792 ;
793 [label="CreditScore <= 824.5\ngini = 0.375\nsamples = 4\nvalue = [1, 3]"] ;
791 -> 793 ;
794 [label="gini = 0.0\nsamples = 3\nvalue = [0, 3]"] ;
793 -> 794 ;
795 [label="gini = 0.0\nsamples = 1\nvalue = [1, 0]"] ;
793 -> 795 ;
796 [label="gini = 0.0\nsamples = 1\nvalue = [0, 1]"] ;
778 -> 796 ;
797 [label="Balance <= 152111.2656\ngini = 0.4648\nsamples = 362\nvalue = [229, 133]"] ;
671 -> 797 ;
798 [label="Balance <= 90340.8594\ngini = 0.4807\nsamples = 326\nvalue = [195, 131]"] ;
797 -> 798 ;
799 [label="Tenure <= 0.5\ngini = 0.1761\nsamples = 41\nvalue = [37, 4]"] ;
798 -> 799 ;
800 [label="gini = 0.0\nsamples = 1\nvalue = [0, 1]"] ;
799 -> 800 ;
801 [label="EstimatedSalary <= 88975.9375\ngini = 0.1388\nsamples = 40\nvalue = [37, 3]"] ;
799 -> 801 ;
802 [label="EstimatedSalary <= 78327.4062\ngini = 0.3047\nsamples = 16\nvalue = [13, 3]"] ;
801 -> 802 ;
803 [label="HasCrCard <= 0.5\ngini = 0.142\nsamples = 13\nvalue = [12, 1]"] ;
802 -> 803 ;
804 [label="CreditScore <= 709.0\ngini = 0.375\nsamples = 4\nvalue = [3, 1]"] ;
803 -> 804 ;
805 [label="gini = 0.0\nsamples = 1\nvalue = [0, 1]"] ;
804 -> 805 ;
806 [label="gini = 0.0\nsamples = 3\nvalue = [3, 0]"] ;
804 -> 806 ;
807 [label="gini = 0.0\nsamples = 9\nvalue = [9, 0]"] ;
803 -> 807 ;
808 [label="Age <= 41.5\ngini = 0.4444\nsamples = 3\nvalue = [1, 2]"] ;
802 -> 808 ;
809 [label="gini = 0.0\nsamples = 2\nvalue = [0, 2]"] ;
808 -> 809 ;
810 [label="gini = 0.0\nsamples = 1\nvalue = [1, 0]"] ;
808 -> 810 ;
811 [label="gini = 0.0\nsamples = 24\nvalue = [24, 0]"] ;
801 -> 811 ;
812 [label="CreditScore <= 770.5\ngini = 0.4941\nsamples = 285\nvalue = [158, 127]"] ;
798 -> 812 ;
813 [label="Balance <= 128454.25\ngini = 0.4992\nsamples = 246\nvalue = [128, 118]"] ;
812 -> 813 ;
814 [label="Tenure <= 1.5\ngini = 0.4973\nsamples = 162\nvalue = [75, 87]"] ;
813 -> 814 ;
815 [label="Age <= 37.5\ngini = 0.3911\nsamples = 30\nvalue = [8, 22]"] ;
814 -> 815 ;
816 [label="EstimatedSalary <= 131486.7031\ngini = 0.4444\nsamples = 9\nvalue = [6, 3]"] ;
815 -> 816 ;
817 [label="gini = 0.0\nsamples = 3\nvalue = [3, 0]"] ;
816 -> 817 ;
818 [label="Tenure <= 0.5\ngini = 0.5\nsamples = 6\nvalue = [3, 3]"] ;
816 -> 818 ;
819 [label="gini = 0.0\nsamples = 1\nvalue = [1, 0]"] ;
818 -> 819 ;
820 [label="IsActiveMember <= 0.5\ngini = 0.48\nsamples = 5\nvalue = [2, 3]"] ;
818 -> 820 ;
821 [label="gini = 0.0\nsamples = 2\nvalue = [0, 2]"] ;
820 -> 821 ;
822 [label="Balance <= 113851.8203\ngini = 0.4444\nsamples = 3\nvalue = [2, 1]"] ;
820 -> 822 ;
823 [label="gini = 0.0\nsamples = 2\nvalue = [2, 0]"] ;
822 -> 823 ;
824 [label="gini = 0.0\nsamples = 1\nvalue = [0, 1]"] ;
822 -> 824 ;
825 [label="Balance <= 104543.1094\ngini = 0.1723\nsamples = 21\nvalue = [2, 19]"] ;
815 -> 825 ;
826 [label="CreditScore <= 637.5\ngini = 0.4082\nsamples = 7\nvalue = [2, 5]"] ;
825 -> 826 ;
827 [label="gini = 0.0\nsamples = 5\nvalue = [0, 5]"] ;
826 -> 827 ;
828 [label="gini = 0.0\nsamples = 2\nvalue = [2, 0]"] ;
826 -> 828 ;
829 [label="gini = 0.0\nsamples = 14\nvalue = [0, 14]"] ;
825 -> 829 ;
830 [label="EstimatedSalary <= 183771.9844\ngini = 0.4999\nsamples = 132\nvalue = [67, 65]"] ;
814 -> 830 ;
831 [label="Balance <= 98643.9219\ngini = 0.497\nsamples = 117\nvalue = [63, 54]"] ;
830 -> 831 ;
832 [label="Tenure <= 2.5\ngini = 0.3047\nsamples = 16\nvalue = [13, 3]"] ;
831 -> 832 ;
833 [label="gini = 0.0\nsamples = 1\nvalue = [0, 1]"] ;
832 -> 833 ;
834 [label="CreditScore <= 509.0\ngini = 0.2311\nsamples = 15\nvalue = [13, 2]"] ;
832 -> 834 ;
835 [label="gini = 0.0\nsamples = 1\nvalue = [0, 1]"] ;
834 -> 835 ;
836 [label="CreditScore <= 737.5\ngini = 0.1327\nsamples = 14\nvalue = [13, 1]"] ;
834 -> 836 ;
837 [label="gini = 0.0\nsamples = 13\nvalue = [13, 0]"] ;
836 -> 837 ;
838 [label="gini = 0.0\nsamples = 1\nvalue = [0, 1]"] ;
836 -> 838 ;
839 [label="CreditScore <= 612.5\ngini = 0.5\nsamples = 101\nvalue = [50, 51]"] ;
831 -> 839 ;
840 [label="EstimatedSalary <= 123805.2891\ngini = 0.4654\nsamples = 38\nvalue = [24, 14]"] ;
839 -> 840 ;
841 [label="EstimatedSalary <= 90701.3438\ngini = 0.4974\nsamples = 28\nvalue = [15, 13]"] ;
840 -> 841 ;
842 [label="CreditScore <= 576.0\ngini = 0.4628\nsamples = 22\nvalue = [14, 8]"] ;
841 -> 842 ;
843 [label="Balance <= 108318.2969\ngini = 0.497\nsamples = 13\nvalue = [6, 7]"] ;
842 -> 843 ;
844 [label="gini = 0.0\nsamples = 3\nvalue = [0, 3]"] ;
843 -> 844 ;
845 [label="Tenure <= 6.5\ngini = 0.48\nsamples = 10\nvalue = [6, 4]"] ;
843 -> 845 ;
846 [label="CreditScore <= 556.0\ngini = 0.2778\nsamples = 6\nvalue = [5, 1]"] ;
845 -> 846 ;
847 [label="gini = 0.0\nsamples = 5\nvalue = [5, 0]"] ;
846 -> 847 ;
848 [label="gini = 0.0\nsamples = 1\nvalue = [0, 1]"] ;
846 -> 848 ;
849 [label="Balance <= 113972.8594\ngini = 0.375\nsamples = 4\nvalue = [1, 3]"] ;
845 -> 849 ;
850 [label="gini = 0.0\nsamples = 1\nvalue = [1, 0]"] ;
849 -> 850 ;
851 [label="gini = 0.0\nsamples = 3\nvalue = [0, 3]"] ;
849 -> 851 ;
852 [label="Balance <= 121796.5156\ngini = 0.1975\nsamples = 9\nvalue = [8, 1]"] ;
842 -> 852 ;
853 [label="gini = 0.0\nsamples = 8\nvalue = [8, 0]"] ;
852 -> 853 ;
854 [label="gini = 0.0\nsamples = 1\nvalue = [0, 1]"] ;
852 -> 854 ;
855 [label="IsActiveMember <= 0.5\ngini = 0.2778\nsamples = 6\nvalue = [1, 5]"] ;
841 -> 855 ;
856 [label="gini = 0.0\nsamples = 4\nvalue = [0, 4]"] ;
855 -> 856 ;
857 [label="Gender_Female <= 0.5\ngini = 0.5\nsamples = 2\nvalue = [1, 1]"] ;
855 -> 857 ;
858 [label="gini = 0.0\nsamples = 1\nvalue = [1, 0]"] ;
857 -> 858 ;
859 [label="gini = 0.0\nsamples = 1\nvalue = [0, 1]"] ;
857 -> 859 ;
860 [label="Gender_Female <= 0.5\ngini = 0.18\nsamples = 10\nvalue = [9, 1]"] ;
840 -> 860 ;
861 [label="gini = 0.0\nsamples = 7\nvalue = [7, 0]"] ;
860 -> 861 ;
862 [label="EstimatedSalary <= 148299.2812\ngini = 0.4444\nsamples = 3\nvalue = [2, 1]"] ;
860 -> 862 ;
863 [label="gini = 0.0\nsamples = 1\nvalue = [0, 1]"] ;
862 -> 863 ;
864 [label="gini = 0.0\nsamples = 2\nvalue = [2, 0]"] ;
862 -> 864 ;
865 [label="EstimatedSalary <= 22934.6367\ngini = 0.4848\nsamples = 63\nvalue = [26, 37]"] ;
839 -> 865 ;
866 [label="EstimatedSalary <= 3176.2849\ngini = 0.2449\nsamples = 7\nvalue = [6, 1]"] ;
865 -> 866 ;
867 [label="gini = 0.0\nsamples = 1\nvalue = [0, 1]"] ;
866 -> 867 ;
868 [label="gini = 0.0\nsamples = 6\nvalue = [6, 0]"] ;
866 -> 868 ;
869 [label="HasCrCard <= 0.5\ngini = 0.4592\nsamples = 56\nvalue = [20, 36]"] ;
865 -> 869 ;
870 [label="EstimatedSalary <= 36577.8945\ngini = 0.1327\nsamples = 14\nvalue = [1, 13]"] ;
869 -> 870 ;
871 [label="gini = 0.0\nsamples = 1\nvalue = [1, 0]"] ;
870 -> 871 ;
872 [label="gini = 0.0\nsamples = 13\nvalue = [0, 13]"] ;
870 -> 872 ;
873 [label="EstimatedSalary <= 54717.1016\ngini = 0.4955\nsamples = 42\nvalue = [19, 23]"] ;
869 -> 873 ;
874 [label="gini = 0.0\nsamples = 9\nvalue = [0, 9]"] ;
873 -> 874 ;
875 [label="EstimatedSalary <= 154054.4062\ngini = 0.4885\nsamples = 33\nvalue = [19, 14]"] ;
873 -> 875 ;
876 [label="EstimatedSalary <= 87534.8828\ngini = 0.5\nsamples = 28\nvalue = [14, 14]"] ;
875 -> 876 ;
877 [label="Balance <= 128139.9297\ngini = 0.2975\nsamples = 11\nvalue = [9, 2]"] ;
876 -> 877 ;
878 [label="Balance <= 110504.4375\ngini = 0.18\nsamples = 10\nvalue = [9, 1]"] ;
877 -> 878 ;
879 [label="Tenure <= 6.0\ngini = 0.4444\nsamples = 3\nvalue = [2, 1]"] ;
878 -> 879 ;
880 [label="gini = 0.0\nsamples = 1\nvalue = [0, 1]"] ;
879 -> 880 ;
881 [label="gini = 0.0\nsamples = 2\nvalue = [2, 0]"] ;
879 -> 881 ;
882 [label="gini = 0.0\nsamples = 7\nvalue = [7, 0]"] ;
878 -> 882 ;
883 [label="gini = 0.0\nsamples = 1\nvalue = [0, 1]"] ;
877 -> 883 ;
884 [label="Age <= 35.5\ngini = 0.4152\nsamples = 17\nvalue = [5, 12]"] ;
876 -> 884 ;
885 [label="Balance <= 111199.2656\ngini = 0.48\nsamples = 5\nvalue = [3, 2]"] ;
884 -> 885 ;
886 [label="CreditScore <= 621.0\ngini = 0.4444\nsamples = 3\nvalue = [1, 2]"] ;
885 -> 886 ;
887 [label="gini = 0.0\nsamples = 1\nvalue = [1, 0]"] ;
886 -> 887 ;
888 [label="gini = 0.0\nsamples = 2\nvalue = [0, 2]"] ;
886 -> 888 ;
889 [label="gini = 0.0\nsamples = 2\nvalue = [2, 0]"] ;
885 -> 889 ;
890 [label="Balance <= 115317.4922\ngini = 0.2778\nsamples = 12\nvalue = [2, 10]"] ;
884 -> 890 ;
891 [label="gini = 0.0\nsamples = 7\nvalue = [0, 7]"] ;
890 -> 891 ;
892 [label="CreditScore <= 648.0\ngini = 0.48\nsamples = 5\nvalue = [2, 3]"] ;
890 -> 892 ;
893 [label="gini = 0.0\nsamples = 3\nvalue = [0, 3]"] ;
892 -> 893 ;
894 [label="gini = 0.0\nsamples = 2\nvalue = [2, 0]"] ;
892 -> 894 ;
895 [label="gini = 0.0\nsamples = 5\nvalue = [5, 0]"] ;
875 -> 895 ;
896 [label="IsActiveMember <= 0.5\ngini = 0.3911\nsamples = 15\nvalue = [4, 11]"] ;
830 -> 896 ;
897 [label="CreditScore <= 665.5\ngini = 0.4898\nsamples = 7\nvalue = [4, 3]"] ;
896 -> 897 ;
898 [label="EstimatedSalary <= 195175.4375\ngini = 0.48\nsamples = 5\nvalue = [2, 3]"] ;
897 -> 898 ;
899 [label="gini = 0.0\nsamples = 3\nvalue = [0, 3]"] ;
898 -> 899 ;
900 [label="gini = 0.0\nsamples = 2\nvalue = [2, 0]"] ;
898 -> 900 ;
901 [label="gini = 0.0\nsamples = 2\nvalue = [2, 0]"] ;
897 -> 901 ;
902 [label="gini = 0.0\nsamples = 8\nvalue = [0, 8]"] ;
896 -> 902 ;
903 [label="Age <= 38.5\ngini = 0.4657\nsamples = 84\nvalue = [53, 31]"] ;
813 -> 903 ;
904 [label="CreditScore <= 766.5\ngini = 0.3533\nsamples = 48\nvalue = [37, 11]"] ;
903 -> 904 ;
905 [label="CreditScore <= 481.5\ngini = 0.3147\nsamples = 46\nvalue = [37, 9]"] ;
904 -> 905 ;
906 [label="Balance <= 133527.3125\ngini = 0.4444\nsamples = 3\nvalue = [1, 2]"] ;
905 -> 906 ;
907 [label="gini = 0.0\nsamples = 1\nvalue = [1, 0]"] ;
906 -> 907 ;
908 [label="gini = 0.0\nsamples = 2\nvalue = [0, 2]"] ;
906 -> 908 ;
909 [label="Tenure <= 5.5\ngini = 0.2726\nsamples = 43\nvalue = [36, 7]"] ;
905 -> 909 ;
910 [label="EstimatedSalary <= 103904.4688\ngini = 0.1327\nsamples = 28\nvalue = [26, 2]"] ;
909 -> 910 ;
911 [label="gini = 0.0\nsamples = 15\nvalue = [15, 0]"] ;
910 -> 911 ;
912 [label="EstimatedSalary <= 107138.0547\ngini = 0.2604\nsamples = 13\nvalue = [11, 2]"] ;
910 -> 912 ;
913 [label="gini = 0.0\nsamples = 1\nvalue = [0, 1]"] ;
912 -> 913 ;
914 [label="Balance <= 137334.2969\ngini = 0.1528\nsamples = 12\nvalue = [11, 1]"] ;
912 -> 914 ;
915 [label="gini = 0.0\nsamples = 7\nvalue = [7, 0]"] ;
914 -> 915 ;
916 [label="EstimatedSalary <= 174690.9531\ngini = 0.32\nsamples = 5\nvalue = [4, 1]"] ;
914 -> 916 ;
917 [label="gini = 0.0\nsamples = 1\nvalue = [0, 1]"] ;
916 -> 917 ;
918 [label="gini = 0.0\nsamples = 4\nvalue = [4, 0]"] ;
916 -> 918 ;
919 [label="EstimatedSalary <= 123032.8438\ngini = 0.4444\nsamples = 15\nvalue = [10, 5]"] ;
909 -> 919 ;
920 [label="EstimatedSalary <= 45141.1289\ngini = 0.4938\nsamples = 9\nvalue = [4, 5]"] ;
919 -> 920 ;
921 [label="gini = 0.0\nsamples = 2\nvalue = [2, 0]"] ;
920 -> 921 ;
922 [label="Tenure <= 7.5\ngini = 0.4082\nsamples = 7\nvalue = [2, 5]"] ;
920 -> 922 ;
923 [label="gini = 0.0\nsamples = 4\nvalue = [0, 4]"] ;
922 -> 923 ;
924 [label="Tenure <= 9.5\ngini = 0.4444\nsamples = 3\nvalue = [2, 1]"] ;
922 -> 924 ;
925 [label="gini = 0.0\nsamples = 2\nvalue = [2, 0]"] ;
924 -> 925 ;
926 [label="gini = 0.0\nsamples = 1\nvalue = [0, 1]"] ;
924 -> 926 ;
927 [label="gini = 0.0\nsamples = 6\nvalue = [6, 0]"] ;
919 -> 927 ;
928 [label="gini = 0.0\nsamples = 2\nvalue = [0, 2]"] ;
904 -> 928 ;
929 [label="EstimatedSalary <= 86946.2109\ngini = 0.4938\nsamples = 36\nvalue = [16, 20]"] ;
903 -> 929 ;
930 [label="Balance <= 142315.25\ngini = 0.3457\nsamples = 18\nvalue = [4, 14]"] ;
929 -> 930 ;
931 [label="Age <= 40.5\ngini = 0.48\nsamples = 10\nvalue = [4, 6]"] ;
930 -> 931 ;
932 [label="gini = 0.0\nsamples = 4\nvalue = [0, 4]"] ;
931 -> 932 ;
933 [label="Balance <= 134367.9688\ngini = 0.4444\nsamples = 6\nvalue = [4, 2]"] ;
931 -> 933 ;
934 [label="gini = 0.0\nsamples = 2\nvalue = [0, 2]"] ;
933 -> 934 ;
935 [label="gini = 0.0\nsamples = 4\nvalue = [4, 0]"] ;
933 -> 935 ;
936 [label="gini = 0.0\nsamples = 8\nvalue = [0, 8]"] ;
930 -> 936 ;
937 [label="EstimatedSalary <= 116177.7031\ngini = 0.4444\nsamples = 18\nvalue = [12, 6]"] ;
929 -> 937 ;
938 [label="gini = 0.0\nsamples = 6\nvalue = [6, 0]"] ;
937 -> 938 ;
939 [label="HasCrCard <= 0.5\ngini = 0.5\nsamples = 12\nvalue = [6, 6]"] ;
937 -> 939 ;
940 [label="gini = 0.0\nsamples = 4\nvalue = [4, 0]"] ;
939 -> 940 ;
941 [label="EstimatedSalary <= 175775.0\ngini = 0.375\nsamples = 8\nvalue = [2, 6]"] ;
939 -> 941 ;
942 [label="gini = 0.0\nsamples = 5\nvalue = [0, 5]"] ;
941 -> 942 ;
943 [label="CreditScore <= 692.0\ngini = 0.4444\nsamples = 3\nvalue = [2, 1]"] ;
941 -> 943 ;
944 [label="gini = 0.0\nsamples = 2\nvalue = [2, 0]"] ;
943 -> 944 ;
945 [label="gini = 0.0\nsamples = 1\nvalue = [0, 1]"] ;
943 -> 945 ;
946 [label="Age <= 37.5\ngini = 0.355\nsamples = 39\nvalue = [30, 9]"] ;
812 -> 946 ;
947 [label="CreditScore <= 778.0\ngini = 0.495\nsamples = 20\nvalue = [11, 9]"] ;
946 -> 947 ;
948 [label="gini = 0.0\nsamples = 5\nvalue = [5, 0]"] ;
947 -> 948 ;
949 [label="Balance <= 118193.875\ngini = 0.48\nsamples = 15\nvalue = [6, 9]"] ;
947 -> 949 ;
950 [label="CreditScore <= 819.0\ngini = 0.48\nsamples = 10\nvalue = [6, 4]"] ;
949 -> 950 ;
951 [label="CreditScore <= 787.0\ngini = 0.32\nsamples = 5\nvalue = [1, 4]"] ;
950 -> 951 ;
952 [label="IsActiveMember <= 0.5\ngini = 0.5\nsamples = 2\nvalue = [1, 1]"] ;
951 -> 952 ;
953 [label="gini = 0.0\nsamples = 1\nvalue = [0, 1]"] ;
952 -> 953 ;
954 [label="gini = 0.0\nsamples = 1\nvalue = [1, 0]"] ;
952 -> 954 ;
955 [label="gini = 0.0\nsamples = 3\nvalue = [0, 3]"] ;
951 -> 955 ;
956 [label="gini = 0.0\nsamples = 5\nvalue = [5, 0]"] ;
950 -> 956 ;
957 [label="gini = 0.0\nsamples = 5\nvalue = [0, 5]"] ;
949 -> 957 ;
958 [label="gini = 0.0\nsamples = 19\nvalue = [19, 0]"] ;
946 -> 958 ;
959 [label="Tenure <= 8.5\ngini = 0.1049\nsamples = 36\nvalue = [34, 2]"] ;
797 -> 959 ;
960 [label="gini = 0.0\nsamples = 29\nvalue = [29, 0]"] ;
959 -> 960 ;
961 [label="EstimatedSalary <= 138335.5625\ngini = 0.4082\nsamples = 7\nvalue = [5, 2]"] ;
959 -> 961 ;
962 [label="Balance <= 162762.125\ngini = 0.4444\nsamples = 3\nvalue = [1, 2]"] ;
961 -> 962 ;
963 [label="gini = 0.0\nsamples = 2\nvalue = [0, 2]"] ;
962 -> 963 ;
964 [label="gini = 0.0\nsamples = 1\nvalue = [1, 0]"] ;
962 -> 964 ;
965 [label="gini = 0.0\nsamples = 4\nvalue = [4, 0]"] ;
961 -> 965 ;
966 [label="Balance <= 69409.7812\ngini = 0.0852\nsamples = 2827\nvalue = [2701, 126]"] ;
2 -> 966 ;
967 [label="Gender_Female <= 0.5\ngini = 0.0436\nsamples = 1703\nvalue = [1665, 38]"] ;
966 -> 967 ;
968 [label="EstimatedSalary <= 83726.3438\ngini = 0.017\nsamples = 933\nvalue = [925, 8]"] ;
967 -> 968 ;
969 [label="gini = 0.0\nsamples = 406\nvalue = [406, 0]"] ;
968 -> 969 ;
970 [label="EstimatedSalary <= 84307.25\ngini = 0.0299\nsamples = 527\nvalue = [519, 8]"] ;
968 -> 970 ;
971 [label="gini = 0.0\nsamples = 1\nvalue = [0, 1]"] ;
970 -> 971 ;
972 [label="Age <= 38.5\ngini = 0.0263\nsamples = 526\nvalue = [519, 7]"] ;
970 -> 972 ;
973 [label="Balance <= 56411.5781\ngini = 0.0145\nsamples = 412\nvalue = [409, 3]"] ;
972 -> 973 ;
974 [label="CreditScore <= 475.5\ngini = 0.0099\nsamples = 403\nvalue = [401, 2]"] ;
973 -> 974 ;
975 [label="CreditScore <= 472.5\ngini = 0.1172\nsamples = 16\nvalue = [15, 1]"] ;
974 -> 975 ;
976 [label="gini = 0.0\nsamples = 14\nvalue = [14, 0]"] ;
975 -> 976 ;
977 [label="HasCrCard <= 0.5\ngini = 0.5\nsamples = 2\nvalue = [1, 1]"] ;
975 -> 977 ;
978 [label="gini = 0.0\nsamples = 1\nvalue = [1, 0]"] ;
977 -> 978 ;
979 [label="gini = 0.0\nsamples = 1\nvalue = [0, 1]"] ;
977 -> 979 ;
980 [label="EstimatedSalary <= 193428.9688\ngini = 0.0052\nsamples = 387\nvalue = [386, 1]"] ;
974 -> 980 ;
981 [label="gini = 0.0\nsamples = 359\nvalue = [359, 0]"] ;
980 -> 981 ;
982 [label="EstimatedSalary <= 194063.8594\ngini = 0.0689\nsamples = 28\nvalue = [27, 1]"] ;
980 -> 982 ;
983 [label="gini = 0.0\nsamples = 1\nvalue = [0, 1]"] ;
982 -> 983 ;
984 [label="gini = 0.0\nsamples = 27\nvalue = [27, 0]"] ;
982 -> 984 ;
985 [label="Age <= 26.5\ngini = 0.1975\nsamples = 9\nvalue = [8, 1]"] ;
973 -> 985 ;
986 [label="gini = 0.0\nsamples = 1\nvalue = [0, 1]"] ;
985 -> 986 ;
987 [label="gini = 0.0\nsamples = 8\nvalue = [8, 0]"] ;
985 -> 987 ;
988 [label="CreditScore <= 610.5\ngini = 0.0677\nsamples = 114\nvalue = [110, 4]"] ;
972 -> 988 ;
989 [label="CreditScore <= 609.5\ngini = 0.1356\nsamples = 41\nvalue = [38, 3]"] ;
988 -> 989 ;
990 [label="IsActiveMember <= 0.5\ngini = 0.095\nsamples = 40\nvalue = [38, 2]"] ;
989 -> 990 ;
991 [label="Tenure <= 8.0\ngini = 0.2076\nsamples = 17\nvalue = [15, 2]"] ;
990 -> 991 ;
992 [label="CreditScore <= 528.5\ngini = 0.1244\nsamples = 15\nvalue = [14, 1]"] ;
991 -> 992 ;
993 [label="CreditScore <= 515.5\ngini = 0.375\nsamples = 4\nvalue = [3, 1]"] ;
992 -> 993 ;
994 [label="gini = 0.0\nsamples = 3\nvalue = [3, 0]"] ;
993 -> 994 ;
995 [label="gini = 0.0\nsamples = 1\nvalue = [0, 1]"] ;
993 -> 995 ;
996 [label="gini = 0.0\nsamples = 11\nvalue = [11, 0]"] ;
992 -> 996 ;
997 [label="Geography_France <= 0.5\ngini = 0.5\nsamples = 2\nvalue = [1, 1]"] ;
991 -> 997 ;
998 [label="gini = 0.0\nsamples = 1\nvalue = [1, 0]"] ;
997 -> 998 ;
999 [label="gini = 0.0\nsamples = 1\nvalue = [0, 1]"] ;
997 -> 999 ;
1000 [label="gini = 0.0\nsamples = 23\nvalue = [23, 0]"] ;
990 -> 1000 ;
1001 [label="gini = 0.0\nsamples = 1\nvalue = [0, 1]"] ;
989 -> 1001 ;
1002 [label="HasCrCard <= 0.5\ngini = 0.027\nsamples = 73\nvalue = [72, 1]"] ;
988 -> 1002 ;
1003 [label="EstimatedSalary <= 134299.8438\ngini = 0.0768\nsamples = 25\nvalue = [24, 1]"] ;
1002 -> 1003 ;
1004 [label="EstimatedSalary <= 132362.5625\ngini = 0.1653\nsamples = 11\nvalue = [10, 1]"] ;
1003 -> 1004 ;
1005 [label="gini = 0.0\nsamples = 10\nvalue = [10, 0]"] ;
1004 -> 1005 ;
1006 [label="gini = 0.0\nsamples = 1\nvalue = [0, 1]"] ;
1004 -> 1006 ;
1007 [label="gini = 0.0\nsamples = 14\nvalue = [14, 0]"] ;
1003 -> 1007 ;
1008 [label="gini = 0.0\nsamples = 48\nvalue = [48, 0]"] ;
1002 -> 1008 ;
1009 [label="Tenure <= 0.5\ngini = 0.0749\nsamples = 770\nvalue = [740, 30]"] ;
967 -> 1009 ;
1010 [label="Balance <= 1884.345\ngini = 0.2706\nsamples = 31\nvalue = [26, 5]"] ;
1009 -> 1010 ;
1011 [label="Age <= 29.0\ngini = 0.2311\nsamples = 30\nvalue = [26, 4]"] ;
1010 -> 1011 ;
1012 [label="Age <= 27.0\ngini = 0.4688\nsamples = 8\nvalue = [5, 3]"] ;
1011 -> 1012 ;
1013 [label="IsActiveMember <= 0.5\ngini = 0.2778\nsamples = 6\nvalue = [5, 1]"] ;
1012 -> 1013 ;
1014 [label="Age <= 22.5\ngini = 0.4444\nsamples = 3\nvalue = [2, 1]"] ;
1013 -> 1014 ;
1015 [label="gini = 0.0\nsamples = 1\nvalue = [1, 0]"] ;
1014 -> 1015 ;
1016 [label="EstimatedSalary <= 99040.1094\ngini = 0.5\nsamples = 2\nvalue = [1, 1]"] ;
1014 -> 1016 ;
1017 [label="gini = 0.0\nsamples = 1\nvalue = [1, 0]"] ;
1016 -> 1017 ;
1018 [label="gini = 0.0\nsamples = 1\nvalue = [0, 1]"] ;
1016 -> 1018 ;
1019 [label="gini = 0.0\nsamples = 3\nvalue = [3, 0]"] ;
1013 -> 1019 ;
1020 [label="gini = 0.0\nsamples = 2\nvalue = [0, 2]"] ;
1012 -> 1020 ;
1021 [label="EstimatedSalary <= 57992.1328\ngini = 0.0868\nsamples = 22\nvalue = [21, 1]"] ;
1011 -> 1021 ;
1022 [label="EstimatedSalary <= 44509.0\ngini = 0.2778\nsamples = 6\nvalue = [5, 1]"] ;
1021 -> 1022 ;
1023 [label="gini = 0.0\nsamples = 5\nvalue = [5, 0]"] ;
1022 -> 1023 ;
1024 [label="gini = 0.0\nsamples = 1\nvalue = [0, 1]"] ;
1022 -> 1024 ;
1025 [label="gini = 0.0\nsamples = 16\nvalue = [16, 0]"] ;
1021 -> 1025 ;
1026 [label="gini = 0.0\nsamples = 1\nvalue = [0, 1]"] ;
1010 -> 1026 ;
1027 [label="Age <= 34.5\ngini = 0.0654\nsamples = 739\nvalue = [714, 25]"] ;
1009 -> 1027 ;
1028 [label="CreditScore <= 460.5\ngini = 0.0285\nsamples = 415\nvalue = [409, 6]"] ;
1027 -> 1028 ;
1029 [label="CreditScore <= 456.0\ngini = 0.18\nsamples = 10\nvalue = [9, 1]"] ;
1028 -> 1029 ;
1030 [label="gini = 0.0\nsamples = 9\nvalue = [9, 0]"] ;
1029 -> 1030 ;
1031 [label="gini = 0.0\nsamples = 1\nvalue = [0, 1]"] ;
1029 -> 1031 ;
1032 [label="EstimatedSalary <= 19446.8164\ngini = 0.0244\nsamples = 405\nvalue = [400, 5]"] ;
1028 -> 1032 ;
1033 [label="EstimatedSalary <= 19242.4766\ngini = 0.0973\nsamples = 39\nvalue = [37, 2]"] ;
1032 -> 1033 ;
1034 [label="CreditScore <= 609.0\ngini = 0.0512\nsamples = 38\nvalue = [37, 1]"] ;
1033 -> 1034 ;
1035 [label="CreditScore <= 595.5\ngini = 0.1528\nsamples = 12\nvalue = [11, 1]"] ;
1034 -> 1035 ;
1036 [label="gini = 0.0\nsamples = 11\nvalue = [11, 0]"] ;
1035 -> 1036 ;
1037 [label="gini = 0.0\nsamples = 1\nvalue = [0, 1]"] ;
1035 -> 1037 ;
1038 [label="gini = 0.0\nsamples = 26\nvalue = [26, 0]"] ;
1034 -> 1038 ;
1039 [label="gini = 0.0\nsamples = 1\nvalue = [0, 1]"] ;
1033 -> 1039 ;
1040 [label="Tenure <= 2.5\ngini = 0.0163\nsamples = 366\nvalue = [363, 3]"] ;
1032 -> 1040 ;
1041 [label="EstimatedSalary <= 101623.7734\ngini = 0.0605\nsamples = 64\nvalue = [62, 2]"] ;
1040 -> 1041 ;
1042 [label="EstimatedSalary <= 99214.7656\ngini = 0.1372\nsamples = 27\nvalue = [25, 2]"] ;
1041 -> 1042 ;
1043 [label="EstimatedSalary <= 89816.25\ngini = 0.074\nsamples = 26\nvalue = [25, 1]"] ;
1042 -> 1043 ;
1044 [label="gini = 0.0\nsamples = 22\nvalue = [22, 0]"] ;
1043 -> 1044 ;
1045 [label="IsActiveMember <= 0.5\ngini = 0.375\nsamples = 4\nvalue = [3, 1]"] ;
1043 -> 1045 ;
1046 [label="gini = 0.0\nsamples = 1\nvalue = [0, 1]"] ;
1045 -> 1046 ;
1047 [label="gini = 0.0\nsamples = 3\nvalue = [3, 0]"] ;
1045 -> 1047 ;
1048 [label="gini = 0.0\nsamples = 1\nvalue = [0, 1]"] ;
1042 -> 1048 ;
1049 [label="gini = 0.0\nsamples = 37\nvalue = [37, 0]"] ;
1041 -> 1049 ;
1050 [label="Tenure <= 4.5\ngini = 0.0066\nsamples = 302\nvalue = [301, 1]"] ;
1040 -> 1050 ;
1051 [label="EstimatedSalary <= 144302.3281\ngini = 0.0244\nsamples = 81\nvalue = [80, 1]"] ;
1050 -> 1051 ;
1052 [label="gini = 0.0\nsamples = 56\nvalue = [56, 0]"] ;
1051 -> 1052 ;
1053 [label="EstimatedSalary <= 145731.7188\ngini = 0.0768\nsamples = 25\nvalue = [24, 1]"] ;
1051 -> 1053 ;
1054 [label="gini = 0.0\nsamples = 1\nvalue = [0, 1]"] ;
1053 -> 1054 ;
1055 [label="gini = 0.0\nsamples = 24\nvalue = [24, 0]"] ;
1053 -> 1055 ;
1056 [label="gini = 0.0\nsamples = 221\nvalue = [221, 0]"] ;
1050 -> 1056 ;
1057 [label="CreditScore <= 584.5\ngini = 0.1104\nsamples = 324\nvalue = [305, 19]"] ;
1027 -> 1057 ;
1058 [label="gini = 0.0\nsamples = 78\nvalue = [78, 0]"] ;
1057 -> 1058 ;
1059 [label="CreditScore <= 588.5\ngini = 0.1425\nsamples = 246\nvalue = [227, 19]"] ;
1057 -> 1059 ;
1060 [label="Age <= 37.0\ngini = 0.48\nsamples = 5\nvalue = [3, 2]"] ;
1059 -> 1060 ;
1061 [label="Tenure <= 4.5\ngini = 0.4444\nsamples = 3\nvalue = [1, 2]"] ;
1060 -> 1061 ;
1062 [label="gini = 0.0\nsamples = 2\nvalue = [0, 2]"] ;
1061 -> 1062 ;
1063 [label="gini = 0.0\nsamples = 1\nvalue = [1, 0]"] ;
1061 -> 1063 ;
1064 [label="gini = 0.0\nsamples = 2\nvalue = [2, 0]"] ;
1060 -> 1064 ;
1065 [label="EstimatedSalary <= 58300.5547\ngini = 0.1311\nsamples = 241\nvalue = [224, 17]"] ;
1059 -> 1065 ;
1066 [label="EstimatedSalary <= 40116.4219\ngini = 0.2392\nsamples = 72\nvalue = [62, 10]"] ;
1065 -> 1066 ;
1067 [label="Tenure <= 9.5\ngini = 0.1372\nsamples = 54\nvalue = [50, 4]"] ;
1066 -> 1067 ;
1068 [label="EstimatedSalary <= 2798.605\ngini = 0.1107\nsamples = 51\nvalue = [48, 3]"] ;
1067 -> 1068 ;
1069 [label="Age <= 35.5\ngini = 0.375\nsamples = 4\nvalue = [3, 1]"] ;
1068 -> 1069 ;
1070 [label="gini = 0.0\nsamples = 1\nvalue = [0, 1]"] ;
1069 -> 1070 ;
1071 [label="gini = 0.0\nsamples = 3\nvalue = [3, 0]"] ;
1069 -> 1071 ;
1072 [label="IsActiveMember <= 0.5\ngini = 0.0815\nsamples = 47\nvalue = [45, 2]"] ;
1068 -> 1072 ;
1073 [label="gini = 0.0\nsamples = 25\nvalue = [25, 0]"] ;
1072 -> 1073 ;
1074 [label="EstimatedSalary <= 10835.7207\ngini = 0.1653\nsamples = 22\nvalue = [20, 2]"] ;
1072 -> 1074 ;
1075 [label="gini = 0.0\nsamples = 9\nvalue = [9, 0]"] ;
1074 -> 1075 ;
1076 [label="EstimatedSalary <= 12581.4551\ngini = 0.2604\nsamples = 13\nvalue = [11, 2]"] ;
1074 -> 1076 ;
1077 [label="gini = 0.0\nsamples = 1\nvalue = [0, 1]"] ;
1076 -> 1077 ;
1078 [label="Tenure <= 2.0\ngini = 0.1528\nsamples = 12\nvalue = [11, 1]"] ;
1076 -> 1078 ;
1079 [label="Geography_France <= 0.5\ngini = 0.5\nsamples = 2\nvalue = [1, 1]"] ;
1078 -> 1079 ;
1080 [label="gini = 0.0\nsamples = 1\nvalue = [1, 0]"] ;
1079 -> 1080 ;
1081 [label="gini = 0.0\nsamples = 1\nvalue = [0, 1]"] ;
1079 -> 1081 ;
1082 [label="gini = 0.0\nsamples = 10\nvalue = [10, 0]"] ;
1078 -> 1082 ;
1083 [label="EstimatedSalary <= 19978.9492\ngini = 0.4444\nsamples = 3\nvalue = [2, 1]"] ;
1067 -> 1083 ;
1084 [label="gini = 0.0\nsamples = 1\nvalue = [0, 1]"] ;
1083 -> 1084 ;
1085 [label="gini = 0.0\nsamples = 2\nvalue = [2, 0]"] ;
1083 -> 1085 ;
1086 [label="CreditScore <= 631.0\ngini = 0.4444\nsamples = 18\nvalue = [12, 6]"] ;
1066 -> 1086 ;
1087 [label="EstimatedSalary <= 50836.625\ngini = 0.48\nsamples = 5\nvalue = [2, 3]"] ;
1086 -> 1087 ;
1088 [label="gini = 0.0\nsamples = 3\nvalue = [0, 3]"] ;
1087 -> 1088 ;
1089 [label="gini = 0.0\nsamples = 2\nvalue = [2, 0]"] ;
1087 -> 1089 ;
1090 [label="EstimatedSalary <= 53796.2695\ngini = 0.355\nsamples = 13\nvalue = [10, 3]"] ;
1086 -> 1090 ;
1091 [label="EstimatedSalary <= 40887.0312\ngini = 0.18\nsamples = 10\nvalue = [9, 1]"] ;
1090 -> 1091 ;
1092 [label="gini = 0.0\nsamples = 1\nvalue = [0, 1]"] ;
1091 -> 1092 ;
1093 [label="gini = 0.0\nsamples = 9\nvalue = [9, 0]"] ;
1091 -> 1093 ;
1094 [label="Tenure <= 4.0\ngini = 0.4444\nsamples = 3\nvalue = [1, 2]"] ;
1090 -> 1094 ;
1095 [label="gini = 0.0\nsamples = 1\nvalue = [1, 0]"] ;
1094 -> 1095 ;
1096 [label="gini = 0.0\nsamples = 2\nvalue = [0, 2]"] ;
1094 -> 1096 ;
1097 [label="CreditScore <= 738.5\ngini = 0.0794\nsamples = 169\nvalue = [162, 7]"] ;
1065 -> 1097 ;
1098 [label="HasCrCard <= 0.5\ngini = 0.0315\nsamples = 125\nvalue = [123, 2]"] ;
1097 -> 1098 ;
1099 [label="EstimatedSalary <= 80349.2422\ngini = 0.0887\nsamples = 43\nvalue = [41, 2]"] ;
1098 -> 1099 ;
1100 [label="EstimatedSalary <= 76947.7344\ngini = 0.2449\nsamples = 7\nvalue = [6, 1]"] ;
1099 -> 1100 ;
1101 [label="gini = 0.0\nsamples = 6\nvalue = [6, 0]"] ;
1100 -> 1101 ;
1102 [label="gini = 0.0\nsamples = 1\nvalue = [0, 1]"] ;
1100 -> 1102 ;
1103 [label="CreditScore <= 622.5\ngini = 0.054\nsamples = 36\nvalue = [35, 1]"] ;
1099 -> 1103 ;
1104 [label="CreditScore <= 620.5\ngini = 0.2449\nsamples = 7\nvalue = [6, 1]"] ;
1103 -> 1104 ;
1105 [label="gini = 0.0\nsamples = 6\nvalue = [6, 0]"] ;
1104 -> 1105 ;
1106 [label="gini = 0.0\nsamples = 1\nvalue = [0, 1]"] ;
1104 -> 1106 ;
1107 [label="gini = 0.0\nsamples = 29\nvalue = [29, 0]"] ;
1103 -> 1107 ;
1108 [label="gini = 0.0\nsamples = 82\nvalue = [82, 0]"] ;
1098 -> 1108 ;
1109 [label="CreditScore <= 739.5\ngini = 0.2014\nsamples = 44\nvalue = [39, 5]"] ;
1097 -> 1109 ;
1110 [label="gini = 0.0\nsamples = 1\nvalue = [0, 1]"] ;
1109 -> 1110 ;
1111 [label="EstimatedSalary <= 118782.9062\ngini = 0.1687\nsamples = 43\nvalue = [39, 4]"] ;
1109 -> 1111 ;
1112 [label="gini = 0.0\nsamples = 22\nvalue = [22, 0]"] ;
1111 -> 1112 ;
1113 [label="Tenure <= 7.5\ngini = 0.3084\nsamples = 21\nvalue = [17, 4]"] ;
1111 -> 1113 ;
1114 [label="Geography_France <= 0.5\ngini = 0.1975\nsamples = 18\nvalue = [16, 2]"] ;
1113 -> 1114 ;
1115 [label="gini = 0.0\nsamples = 9\nvalue = [9, 0]"] ;
1114 -> 1115 ;
1116 [label="CreditScore <= 769.5\ngini = 0.3457\nsamples = 9\nvalue = [7, 2]"] ;
1114 -> 1116 ;
1117 [label="gini = 0.0\nsamples = 3\nvalue = [3, 0]"] ;
1116 -> 1117 ;
1118 [label="CreditScore <= 793.5\ngini = 0.4444\nsamples = 6\nvalue = [4, 2]"] ;
1116 -> 1118 ;
1119 [label="gini = 0.0\nsamples = 1\nvalue = [0, 1]"] ;
1118 -> 1119 ;
1120 [label="EstimatedSalary <= 170291.1406\ngini = 0.32\nsamples = 5\nvalue = [4, 1]"] ;
1118 -> 1120 ;
1121 [label="HasCrCard <= 0.5\ngini = 0.5\nsamples = 2\nvalue = [1, 1]"] ;
1120 -> 1121 ;
1122 [label="gini = 0.0\nsamples = 1\nvalue = [1, 0]"] ;
1121 -> 1122 ;
1123 [label="gini = 0.0\nsamples = 1\nvalue = [0, 1]"] ;
1121 -> 1123 ;
1124 [label="gini = 0.0\nsamples = 3\nvalue = [3, 0]"] ;
1120 -> 1124 ;
1125 [label="EstimatedSalary <= 141437.0625\ngini = 0.4444\nsamples = 3\nvalue = [1, 2]"] ;
1113 -> 1125 ;
1126 [label="gini = 0.0\nsamples = 2\nvalue = [0, 2]"] ;
1125 -> 1126 ;
1127 [label="gini = 0.0\nsamples = 1\nvalue = [1, 0]"] ;
1125 -> 1127 ;
1128 [label="Balance <= 205892.8594\ngini = 0.1443\nsamples = 1124\nvalue = [1036, 88]"] ;
966 -> 1128 ;
1129 [label="Balance <= 70104.2031\ngini = 0.1403\nsamples = 1120\nvalue = [1035, 85]"] ;
1128 -> 1129 ;
1130 [label="CreditScore <= 478.0\ngini = 0.4444\nsamples = 3\nvalue = [1, 2]"] ;
1129 -> 1130 ;
1131 [label="gini = 0.0\nsamples = 1\nvalue = [1, 0]"] ;
1130 -> 1131 ;
1132 [label="gini = 0.0\nsamples = 2\nvalue = [0, 2]"] ;
1130 -> 1132 ;
1133 [label="CreditScore <= 377.5\ngini = 0.1376\nsamples = 1117\nvalue = [1034, 83]"] ;
1129 -> 1133 ;
1134 [label="gini = 0.0\nsamples = 1\nvalue = [0, 1]"] ;
1133 -> 1134 ;
1135 [label="Age <= 36.5\ngini = 0.1362\nsamples = 1116\nvalue = [1034, 82]"] ;
1133 -> 1135 ;
1136 [label="EstimatedSalary <= 183143.7656\ngini = 0.1037\nsamples = 729\nvalue = [689, 40]"] ;
1135 -> 1136 ;
1137 [label="EstimatedSalary <= 182986.2344\ngini = 0.1124\nsamples = 669\nvalue = [629, 40]"] ;
1136 -> 1137 ;
1138 [label="CreditScore <= 791.5\ngini = 0.1099\nsamples = 668\nvalue = [629, 39]"] ;
1137 -> 1138 ;
1139 [label="CreditScore <= 788.5\ngini = 0.1191\nsamples = 613\nvalue = [574, 39]"] ;
1138 -> 1139 ;
1140 [label="CreditScore <= 761.5\ngini = 0.1165\nsamples = 612\nvalue = [574, 38]"] ;
1139 -> 1140 ;
1141 [label="CreditScore <= 625.5\ngini = 0.1062\nsamples = 569\nvalue = [537, 32]"] ;
1140 -> 1141 ;
1142 [label="EstimatedSalary <= 158253.2188\ngini = 0.1458\nsamples = 240\nvalue = [221, 19]"] ;
1141 -> 1142 ;
1143 [label="Geography_Germany <= 0.5\ngini = 0.1123\nsamples = 201\nvalue = [189, 12]"] ;
1142 -> 1143 ;
1144 [label="CreditScore <= 427.0\ngini = 0.1784\nsamples = 101\nvalue = [91, 10]"] ;
1143 -> 1144 ;
1145 [label="gini = 0.0\nsamples = 1\nvalue = [0, 1]"] ;
1144 -> 1145 ;
1146 [label="Age <= 32.5\ngini = 0.1638\nsamples = 100\nvalue = [91, 9]"] ;
1144 -> 1146 ;
1147 [label="CreditScore <= 598.5\ngini = 0.0351\nsamples = 56\nvalue = [55, 1]"] ;
1146 -> 1147 ;
1148 [label="gini = 0.0\nsamples = 39\nvalue = [39, 0]"] ;
1147 -> 1148 ;
1149 [label="CreditScore <= 600.0\ngini = 0.1107\nsamples = 17\nvalue = [16, 1]"] ;
1147 -> 1149 ;
1150 [label="gini = 0.0\nsamples = 1\nvalue = [0, 1]"] ;
1149 -> 1150 ;
1151 [label="gini = 0.0\nsamples = 16\nvalue = [16, 0]"] ;
1149 -> 1151 ;
1152 [label="Tenure <= 1.5\ngini = 0.2975\nsamples = 44\nvalue = [36, 8]"] ;
1146 -> 1152 ;
1153 [label="CreditScore <= 601.0\ngini = 0.48\nsamples = 5\nvalue = [2, 3]"] ;
1152 -> 1153 ;
1154 [label="Geography_France <= 0.5\ngini = 0.4444\nsamples = 3\nvalue = [2, 1]"] ;
1153 -> 1154 ;
1155 [label="gini = 0.0\nsamples = 1\nvalue = [0, 1]"] ;
1154 -> 1155 ;
1156 [label="gini = 0.0\nsamples = 2\nvalue = [2, 0]"] ;
1154 -> 1156 ;
1157 [label="gini = 0.0\nsamples = 2\nvalue = [0, 2]"] ;
1153 -> 1157 ;
1158 [label="Balance <= 118681.8125\ngini = 0.2235\nsamples = 39\nvalue = [34, 5]"] ;
1152 -> 1158 ;
1159 [label="EstimatedSalary <= 86322.7422\ngini = 0.375\nsamples = 16\nvalue = [12, 4]"] ;
1158 -> 1159 ;
1160 [label="gini = 0.0\nsamples = 9\nvalue = [9, 0]"] ;
1159 -> 1160 ;
1161 [label="EstimatedSalary <= 114890.1875\ngini = 0.4898\nsamples = 7\nvalue = [3, 4]"] ;
1159 -> 1161 ;
1162 [label="gini = 0.0\nsamples = 4\nvalue = [0, 4]"] ;
1161 -> 1162 ;
1163 [label="gini = 0.0\nsamples = 3\nvalue = [3, 0]"] ;
1161 -> 1163 ;
1164 [label="EstimatedSalary <= 28894.3867\ngini = 0.0832\nsamples = 23\nvalue = [22, 1]"] ;
1158 -> 1164 ;
1165 [label="Balance <= 151376.7188\ngini = 0.4444\nsamples = 3\nvalue = [2, 1]"] ;
1164 -> 1165 ;
1166 [label="gini = 0.0\nsamples = 2\nvalue = [2, 0]"] ;
1165 -> 1166 ;
1167 [label="gini = 0.0\nsamples = 1\nvalue = [0, 1]"] ;
1165 -> 1167 ;
1168 [label="gini = 0.0\nsamples = 20\nvalue = [20, 0]"] ;
1164 -> 1168 ;
1169 [label="Age <= 23.5\ngini = 0.0392\nsamples = 100\nvalue = [98, 2]"] ;
1143 -> 1169 ;
1170 [label="Tenure <= 4.5\ngini = 0.2188\nsamples = 8\nvalue = [7, 1]"] ;
1169 -> 1170 ;
1171 [label="CreditScore <= 557.0\ngini = 0.5\nsamples = 2\nvalue = [1, 1]"] ;
1170 -> 1171 ;
1172 [label="gini = 0.0\nsamples = 1\nvalue = [1, 0]"] ;
1171 -> 1172 ;
1173 [label="gini = 0.0\nsamples = 1\nvalue = [0, 1]"] ;
1171 -> 1173 ;
1174 [label="gini = 0.0\nsamples = 6\nvalue = [6, 0]"] ;
1170 -> 1174 ;
1175 [label="Tenure <= 8.5\ngini = 0.0215\nsamples = 92\nvalue = [91, 1]"] ;
1169 -> 1175 ;
1176 [label="gini = 0.0\nsamples = 74\nvalue = [74, 0]"] ;
1175 -> 1176 ;
1177 [label="CreditScore <= 591.0\ngini = 0.1049\nsamples = 18\nvalue = [17, 1]"] ;
1175 -> 1177 ;
1178 [label="gini = 0.0\nsamples = 14\nvalue = [14, 0]"] ;
1177 -> 1178 ;
1179 [label="IsActiveMember <= 0.5\ngini = 0.375\nsamples = 4\nvalue = [3, 1]"] ;
1177 -> 1179 ;
1180 [label="gini = 0.0\nsamples = 1\nvalue = [0, 1]"] ;
1179 -> 1180 ;
1181 [label="gini = 0.0\nsamples = 3\nvalue = [3, 0]"] ;
1179 -> 1181 ;
1182 [label="EstimatedSalary <= 163624.9375\ngini = 0.2945\nsamples = 39\nvalue = [32, 7]"] ;
1142 -> 1182 ;
1183 [label="Balance <= 96707.2969\ngini = 0.5\nsamples = 10\nvalue = [5, 5]"] ;
1182 -> 1183 ;
1184 [label="gini = 0.0\nsamples = 3\nvalue = [0, 3]"] ;
1183 -> 1184 ;
1185 [label="Tenure <= 7.0\ngini = 0.4082\nsamples = 7\nvalue = [5, 2]"] ;
1183 -> 1185 ;
1186 [label="gini = 0.0\nsamples = 5\nvalue = [5, 0]"] ;
1185 -> 1186 ;
1187 [label="gini = 0.0\nsamples = 2\nvalue = [0, 2]"] ;
1185 -> 1187 ;
1188 [label="Balance <= 141522.2812\ngini = 0.1284\nsamples = 29\nvalue = [27, 2]"] ;
1182 -> 1188 ;
1189 [label="gini = 0.0\nsamples = 24\nvalue = [24, 0]"] ;
1188 -> 1189 ;
1190 [label="HasCrCard <= 0.5\ngini = 0.48\nsamples = 5\nvalue = [3, 2]"] ;
1188 -> 1190 ;
1191 [label="gini = 0.0\nsamples = 3\nvalue = [3, 0]"] ;
1190 -> 1191 ;
1192 [label="gini = 0.0\nsamples = 2\nvalue = [0, 2]"] ;
1190 -> 1192 ;
1193 [label="EstimatedSalary <= 55924.9453\ngini = 0.0759\nsamples = 329\nvalue = [316, 13]"] ;
1141 -> 1193 ;
1194 [label="EstimatedSalary <= 55560.6562\ngini = 0.1567\nsamples = 105\nvalue = [96, 9]"] ;
1193 -> 1194 ;
1195 [label="Balance <= 180797.5312\ngini = 0.142\nsamples = 104\nvalue = [96, 8]"] ;
1194 -> 1195 ;
1196 [label="Balance <= 108122.2969\ngini = 0.1278\nsamples = 102\nvalue = [95, 7]"] ;
1195 -> 1196 ;
1197 [label="gini = 0.0\nsamples = 35\nvalue = [35, 0]"] ;
1196 -> 1197 ;
1198 [label="Balance <= 110579.7969\ngini = 0.1871\nsamples = 67\nvalue = [60, 7]"] ;
1196 -> 1198 ;
1199 [label="CreditScore <= 730.5\ngini = 0.375\nsamples = 4\nvalue = [1, 3]"] ;
1198 -> 1199 ;
1200 [label="gini = 0.0\nsamples = 3\nvalue = [0, 3]"] ;
1199 -> 1200 ;
1201 [label="gini = 0.0\nsamples = 1\nvalue = [1, 0]"] ;
1199 -> 1201 ;
1202 [label="Tenure <= 0.5\ngini = 0.1189\nsamples = 63\nvalue = [59, 4]"] ;
1198 -> 1202 ;
1203 [label="CreditScore <= 717.5\ngini = 0.5\nsamples = 2\nvalue = [1, 1]"] ;
1202 -> 1203 ;
1204 [label="gini = 0.0\nsamples = 1\nvalue = [0, 1]"] ;
1203 -> 1204 ;
